{"learner":{"attributes":{"best_iteration":"499","best_ntree_limit":"500","scikit_learn":"{\"n_estimators\": 500, \"max_depth\": 6, \"max_leaves\": 0, \"max_bin\": 256, \"grow_policy\": \"depthwise\", \"learning_rate\": 0.01, \"verbosity\": 1, \"booster\": \"gbtree\", \"tree_method\": \"exact\", \"gamma\": 1, \"min_child_weight\": 5.0, \"max_delta_step\": 0.0, \"subsample\": 0.6, \"sampling_method\": \"uniform\", \"colsample_bytree\": 0.8, \"colsample_bylevel\": 1, \"colsample_bynode\": 1, \"reg_alpha\": 0, \"reg_lambda\": 2.0, \"scale_pos_weight\": 1, \"base_score\": 0.5, \"missing\": NaN, \"num_parallel_tree\": 1, \"random_state\": 0, \"n_jobs\": 0, \"monotone_constraints\": \"()\", \"interaction_constraints\": \"\", \"importance_type\": null, \"gpu_id\": -1, \"validate_parameters\": 1, \"predictor\": \"auto\", \"enable_categorical\": false, \"max_cat_to_onehot\": 4, \"eval_metric\": null, \"early_stopping_rounds\": null, \"callbacks\": null, \"kwargs\": {\"min_split_loss\": 1.0}, \"_estimator_type\": \"regressor\"}"},"feature_names":["Price","Qty","Owned","DeltaOwn","Value","NumTrades","TradeToFileTime","ValueOwned","%VolumeChange","Title_Chair","Title_Director","Title_Officer","Title_Other","P - Purchase","S - Sale","S - Sale+OE"],"feature_types":["float","float","float","float","float","int","int","float","float","int","int","int","int","int","int","int"],"gradient_booster":{"model":{"gbtree_model_param":{"num_parallel_tree":"1","num_trees":"500","size_leaf_vector":"0"},"tree_info":[0,0,0,0,0,0,0,0,0,0,0,0,0,0,0,0,0,0,0,0,0,0,0,0,0,0,0,0,0,0,0,0,0,0,0,0,0,0,0,0,0,0,0,0,0,0,0,0,0,0,0,0,0,0,0,0,0,0,0,0,0,0,0,0,0,0,0,0,0,0,0,0,0,0,0,0,0,0,0,0,0,0,0,0,0,0,0,0,0,0,0,0,0,0,0,0,0,0,0,0,0,0,0,0,0,0,0,0,0,0,0,0,0,0,0,0,0,0,0,0,0,0,0,0,0,0,0,0,0,0,0,0,0,0,0,0,0,0,0,0,0,0,0,0,0,0,0,0,0,0,0,0,0,0,0,0,0,0,0,0,0,0,0,0,0,0,0,0,0,0,0,0,0,0,0,0,0,0,0,0,0,0,0,0,0,0,0,0,0,0,0,0,0,0,0,0,0,0,0,0,0,0,0,0,0,0,0,0,0,0,0,0,0,0,0,0,0,0,0,0,0,0,0,0,0,0,0,0,0,0,0,0,0,0,0,0,0,0,0,0,0,0,0,0,0,0,0,0,0,0,0,0,0,0,0,0,0,0,0,0,0,0,0,0,0,0,0,0,0,0,0,0,0,0,0,0,0,0,0,0,0,0,0,0,0,0,0,0,0,0,0,0,0,0,0,0,0,0,0,0,0,0,0,0,0,0,0,0,0,0,0,0,0,0,0,0,0,0,0,0,0,0,0,0,0,0,0,0,0,0,0,0,0,0,0,0,0,0,0,0,0,0,0,0,0,0,0,0,0,0,0,0,0,0,0,0,0,0,0,0,0,0,0,0,0,0,0,0,0,0,0,0,0,0,0,0,0,0,0,0,0,0,0,0,0,0,0,0,0,0,0,0,0,0,0,0,0,0,0,0,0,0,0,0,0,0,0,0,0,0,0,0,0,0,0,0,0,0,0,0,0,0,0,0,0,0,0,0,0,0,0,0,0,0,0,0,0,0,0,0,0,0,0,0,0,0,0,0,0,0,0,0,0,0,0,0,0,0,0,0,0,0,0,0,0,0,0,0,0,0,0,0,0,0,0,0,0,0,0,0,0,0,0,0,0,0,0,0,0,0,0,0,0,0,0,0,0,0,0,0],"trees":[{"base_weights":[-4.502721E-1,-7.7173996E-1,3.949672E0,-9.245574E-1,5.5031238E0,2.536384E1,3.1961884E0,-1.5698792E0,1.6016674E-1,4.928755E1,7.1830654E-1,4.0138485E1,1.5885926E1,2.3862138E0,2.4287395E1,-1.1567421E0,-3.175672E0,1.323894E1,8.62933E-2,2.7127703E1,2.4414111E2,4.863012E1,-2.5562513E-1,8.547347E1,1.3457143E1,9.130669E0,1.7818066E1,2.1411052E0,2.3052235E1,1.1622667E1,3.1566917E1,-9.97519E-1,-6.589082E0,2.4800351E-1,-3.8766453E0,1.5756315E1,4.7216167E0,3.2080255E0,-5.545796E-2,5.4432213E1,1.5432987E1,6.345606E1,1.7791874E1,1.2774505E1,-6.5155655E-1,2.3962835E1,6.7602E0,2.0961048E1,1.1269205E1,1.6440275E1,1.8609705E0,2.6891018E1,8.651916E0,7.26957E0,1.3210521E1,5.951529E1,1.9285536E1,-8.815411E-1,-4.8382664E0,-6.6070265E-1,-8.793375E0,-5.2774534E-2,2.1581553E1,-2.0200455E0,-5.0648923E0,1.7559134E1,2.5777915E0,2.0239673E0,5.5083094E0,2.472713E-1,2.2656559E1,-8.530136E-1,3.8583717E-1,2.81392E1,6.223834E1,9.710489E0,1.9748238E1,1.7469702E1,5.054888E0,1.4016487E1,-8.3932555E-1,1.9229265E0,8.794251E0,2.449848E1,1.0407321E1,8.386687E0,1.8638983E1,1.7532448E1,1.6615207E0,1.8942139E1,9.467641E1,2.6525785E1,1.4181909E1],"categories":[],"categories_nodes":[],"categories_segments":[],"categories_sizes":[],"default_left":[1,1,1,1,1,1,1,1,1,1,1,1,1,1,1,1,1,1,1,1,0,1,1,0,1,0,1,1,1,1,1,1,1,1,1,1,1,1,1,1,1,0,0,1,1,0,1,1,0,1,1,0,0,0,0,1,1,0,0,0,0,0,0,0,0,0,0,0,0,0,0,0,0,0,0,0,0,0,0,0,0,0,0,0,0,0,0,0,0,0,0,0,0],"id":0,"left_children":[1,3,5,7,9,11,13,15,17,19,21,23,25,27,29,31,33,35,37,39,-1,41,43,-1,45,-1,47,49,51,53,55,57,59,61,63,65,67,69,71,73,75,-1,-1,77,79,-1,81,83,-1,85,87,-1,-1,-1,-1,89,91,-1,-1,-1,-1,-1,-1,-1,-1,-1,-1,-1,-1,-1,-1,-1,-1,-1,-1,-1,-1,-1,-1,-1,-1,-1,-1,-1,-1,-1,-1,-1,-1,-1,-1,-1,-1],"loss_changes":[4.6013598E4,2.9078535E4,3.557739E4,2.0716887E4,1.5097903E5,9.2271875E3,3.647661E4,1.23029375E4,1.0665243E4,2.9332675E5,3.044903E4,3.156829E4,3.141709E2,1.0361379E4,6.5494805E3,1.2755305E4,9.111957E3,1.1805693E3,4.8595522E3,1.9394914E4,0E0,3.6856738E3,3.32359E3,0E0,1.083133E3,0E0,2.685586E2,8.1224385E3,8.613955E2,2.91167E1,1.4523414E4,6.3808896E3,5.4768926E3,4.153859E3,6.930957E3,1.0261211E3,1.3780487E1,2.7455566E4,3.6983232E3,3.970078E2,8.2647656E2,0E0,0E0,5.120425E2,1.742152E3,0E0,1.1376758E2,3.113994E2,0E0,3.7795312E2,6.211837E3,0E0,0E0,0E0,0E0,1.6385617E4,6.14834E2,0E0,0E0,0E0,0E0,0E0,0E0,0E0,0E0,0E0,0E0,0E0,0E0,0E0,0E0,0E0,0E0,0E0,0E0,0E0,0E0,0E0,0E0,0E0,0E0,0E0,0E0,0E0,0E0,0E0,0E0,0E0,0E0,0E0,0E0,0E0,0E0],"parents":[2147483647,0,0,1,1,2,2,3,3,4,4,5,5,6,6,7,7,8,8,9,9,10,10,11,11,12,12,13,13,14,14,15,15,16,16,17,17,18,18,19,19,21,21,22,22,24,24,26,26,27,27,28,28,29,29,30,30,31,31,32,32,33,33,34,34,35,35,36,36,37,37,38,38,39,39,40,40,43,43,44,44,46,46,47,47,49,49,50,50,55,55,56,56],"right_children":[2,4,6,8,10,12,14,16,18,20,22,24,26,28,30,32,34,36,38,40,-1,42,44,-1,46,-1,48,50,52,54,56,58,60,62,64,66,68,70,72,74,76,-1,-1,78,80,-1,82,84,-1,86,88,-1,-1,-1,-1,90,92,-1,-1,-1,-1,-1,-1,-1,-1,-1,-1,-1,-1,-1,-1,-1,-1,-1,-1,-1,-1,-1,-1,-1,-1,-1,-1,-1,-1,-1,-1,-1,-1,-1,-1,-1,-1],"split_conditions":[1.32445E2,1.05E4,8.7612275E5,3.18E1,5.6070414E0,5E-1,1.504314E6,2.7545E1,-5.4863174E1,4.915395E0,7.3042E4,5E-1,-2.25E3,8.387079E1,-5.4775E4,6.352688E8,4.83775E4,-3.367129E0,-7.346587E1,1.4593903E7,2.441411E0,4.8610975E5,-6.54897E0,8.547347E-1,-2.2974895E1,9.130669E-2,-4.75E2,-4.853705E1,2.0247604E2,1.42125E2,2.2417E2,2.7132221E1,4.3938873E1,5E-1,-2.0346785E0,-2.5675E3,-7.0795E3,4.272E1,-1.3901377E1,-3.7877613E1,5.947284E6,6.345606E-1,1.7791873E-1,3.5E0,7.5668216E0,2.3962834E-1,-5.14011E0,2.29745E2,1.1269205E-1,1.5E0,-4.3233E4,2.6891017E-1,8.651915E-2,7.2695695E-2,1.321052E-1,1.82875E2,-2.28275E4,-8.815411E-3,-4.8382662E-2,-6.6070263E-3,-8.793375E-2,-5.2774535E-4,2.1581551E-1,-2.0200456E-2,-5.064892E-2,1.7559133E-1,2.5777914E-2,2.0239672E-2,5.5083092E-2,2.472713E-3,2.2656558E-1,-8.530135E-3,3.8583716E-3,2.81392E-1,6.2238336E-1,9.710489E-2,1.9748238E-1,1.7469701E-1,5.0548878E-2,1.4016487E-1,-8.393255E-3,1.9229265E-2,8.794251E-2,2.4498479E-1,1.04073204E-1,8.386687E-2,1.8638982E-1,1.7532447E-1,1.6615206E-2,1.8942139E-1,9.4676405E-1,2.6525784E-1,1.4181909E-1],"split_indices":[0,1,7,0,3,10,2,0,8,3,2,11,1,8,1,7,2,3,3,7,0,7,8,0,8,0,1,8,8,0,0,3,8,15,3,1,1,0,3,8,2,0,0,6,3,0,8,0,0,6,1,0,0,0,0,0,1,0,0,0,0,0,0,0,0,0,0,0,0,0,0,0,0,0,0,0,0,0,0,0,0,0,0,0,0,0,0,0,0,0,0,0,0],"split_type":[0,0,0,0,0,0,0,0,0,0,0,0,0,0,0,0,0,0,0,0,0,0,0,0,0,0,0,0,0,0,0,0,0,0,0,0,0,0,0,0,0,0,0,0,0,0,0,0,0,0,0,0,0,0,0,0,0,0,0,0,0,0,0,0,0,0,0,0,0,0,0,0,0,0,0,0,0,0,0,0,0,0,0,0,0,0,0,0,0,0,0,0,0],"sum_hessian":[3.2525E4,3.0312E4,2.213E3,2.9593E4,7.19E2,7.3E1,2.14E3,1.8554E4,1.1039E4,6.9E1,6.5E2,2.6E1,4.7E1,2.063E3,7.7E1,1.476E4,3.794E3,6E1,1.0979E4,6.4E1,5E0,1.1E1,6.39E2,8E0,1.8E1,1.3E1,3.4E1,2.041E3,2.2E1,3E1,4.7E1,1.4342E4,4.18E2,6.45E2,3.149E3,4.5E1,1.5E1,4.75E2,1.0504E4,1.7E1,4.7E1,6E0,5E0,1.7E1,6.22E2,5E0,1.3E1,2E1,1.4E1,3.7E1,2.004E3,1.6E1,6E0,1.1E1,1.9E1,1.2E1,3.5E1,1.3924E4,4.18E2,1.14E2,3.04E2,6.38E2,7E0,1.231E3,1.918E3,3.9E1,6E0,5E0,1E1,4.14E2,6.1E1,3.741E3,6.763E3,6E0,1.1E1,2.3E1,2.4E1,9E0,8E0,6E0,6.16E2,5E0,8E0,1.3E1,7E0,1E1,2.7E1,2.3E1,1.981E3,7E0,5E0,1.1E1,2.4E1],"tree_param":{"num_deleted":"0","num_feature":"16","num_nodes":"93","size_leaf_vector":"0"}},{"base_weights":[-6.851498E-1,-1.0005676E0,3.7039077E0,-8.0056703E-1,-5.6721597E0,3.9221764E1,3.1794536E0,-8.402979E-1,1.4677291E1,5.013096E1,8.2886505E0,2.4351995E0,2.3561243E1,-6.871068E-1,-3.0366325E0,2.3203627E1,8.381514E0,2.1015766E1,8.071877E1,1.9270525E0,1.65916E1,1.8615698E1,3.940786E1,-7.4487156E-1,5.35281E0,-1.2272453E0,-6.1808653E0,2.5837883E1,1.0729883E1,1.3522604E1,1.6174929E0,2.6651598E1,6.9600744E0,1.4268549E1,1.5060793E0,4.3574724E0,2.0302116E1,3.294573E1,1.6284483E1,1.206193E1,7.502721E1,-7.575851E-1,2.684268E1,3.2678535E1,2.532287E0,1.6578783E1,-1.3964903E0,-7.6265903E0,1.5826867E0,1.2412712E1,2.7952906E1,9.904236E-1,1.6280788E1,7.811924E-1,2.9902585E0,1.1674499E1,2.7238543E1,3.3074117E0,-9.614152E-1,5.7735143E0,1.7867279E0,2.366645E1,8.722703E0,1.3111408E1,2.2581327E1,1.6303093E1,4.3745008E0],"categories":[],"categories_nodes":[],"categories_segments":[],"categories_sizes":[],"default_left":[1,1,1,1,0,1,1,1,1,1,0,1,1,1,1,1,1,1,0,1,1,1,1,1,1,1,1,1,0,1,1,0,0,1,1,1,1,0,1,1,0,0,0,0,0,0,0,0,0,0,0,0,0,0,0,0,0,0,0,0,0,0,0,0,0,0,0],"id":1,"left_children":[1,3,5,7,-1,9,11,13,15,17,-1,19,21,23,25,27,29,31,-1,33,35,37,39,41,43,45,47,49,-1,51,53,-1,-1,55,57,59,61,-1,63,65,-1,-1,-1,-1,-1,-1,-1,-1,-1,-1,-1,-1,-1,-1,-1,-1,-1,-1,-1,-1,-1,-1,-1,-1,-1,-1,-1],"loss_changes":[4.707655E4,2.9629438E4,4.222125E4,1.8732623E4,0E0,1.0304992E4,3.400085E4,1.0206006E4,3.7980684E3,1.798095E4,0E0,1.5560406E4,4.724035E3,9.906109E3,1.12379375E4,4.9701562E2,1.6254275E3,8.172388E2,0E0,1.0862246E4,3.2276875E3,1.064998E3,1.4748805E4,9.897381E3,2.056709E4,3.8373916E3,8.1278438E3,1.5919922E1,0E0,9.010342E2,2.173309E1,0E0,0E0,1.6855E3,9.038148E3,5.2174255E1,1.8076797E3,0E0,5.866953E2,2.4860791E2,0E0,0E0,0E0,0E0,0E0,0E0,0E0,0E0,0E0,0E0,0E0,0E0,0E0,0E0,0E0,0E0,0E0,0E0,0E0,0E0,0E0,0E0,0E0,0E0,0E0,0E0,0E0],"parents":[2147483647,0,0,1,1,2,2,3,3,5,5,6,6,7,7,8,8,9,9,11,11,12,12,13,13,14,14,15,15,16,16,17,17,19,19,20,20,21,21,22,22,23,23,24,24,25,25,26,26,27,27,29,29,30,30,33,33,34,34,35,35,36,36,38,38,39,39],"right_children":[2,4,6,8,-1,10,12,14,16,18,-1,20,22,24,26,28,30,32,-1,34,36,38,40,42,44,46,48,50,-1,52,54,-1,-1,56,58,60,62,-1,64,66,-1,-1,-1,-1,-1,-1,-1,-1,-1,-1,-1,-1,-1,-1,-1,-1,-1,-1,-1,-1,-1,-1,-1,-1,-1,-1,-1],"split_conditions":[1.07100006E2,1.55E1,3.875E2,8.5E0,-5.6721594E-2,3.3678E2,1.4824155E6,1.8677904E7,-1.6204693E1,1.7945E2,8.28865E-2,3.5E0,5E-1,1.1008886E7,4.3938873E1,7.185E1,2.4036536E0,5E-1,8.0718774E-1,1.3053E2,1.33125E2,1.863246E6,1.2678733E7,3.005E2,1.3367102E7,-5.8368088E1,-1.5070319E-1,5.168E1,1.0729883E-1,-5.7793007E1,3.5E0,2.6651597E-1,6.9600746E-2,-1.0781107E0,-1.4222385E0,1.1546E2,3.31945E2,3.2945728E-1,-6.747659E-2,5E-1,7.5027204E-1,-7.575851E-3,2.684268E-1,3.2678536E-1,2.5322868E-2,1.6578783E-1,-1.3964903E-2,-7.62659E-2,1.5826866E-2,1.2412712E-1,2.7952906E-1,9.904236E-3,1.6280788E-1,7.811924E-3,2.9902583E-2,1.1674498E-1,2.7238542E-1,3.3074114E-2,-9.614152E-3,5.773514E-2,1.7867278E-2,2.366645E-1,8.7227024E-2,1.3111408E-1,2.2581327E-1,1.6303092E-1,4.3745007E-2],"split_indices":[0,5,2,5,0,0,2,2,3,0,0,5,11,2,8,0,8,11,0,0,0,2,2,6,2,8,3,0,0,8,6,0,0,3,3,0,0,0,3,14,0,0,0,0,0,0,0,0,0,0,0,0,0,0,0,0,0,0,0,0,0,0,0,0,0,0,0],"split_type":[0,0,0,0,0,0,0,0,0,0,0,0,0,0,0,0,0,0,0,0,0,0,0,0,0,0,0,0,0,0,0,0,0,0,0,0,0,0,0,0,0,0,0,0,0,0,0,0,0,0,0,0,0,0,0,0,0,0,0,0,0,0,0,0,0,0,0],"sum_hessian":[3.3998E4,3.172E4,2.278E3,3.042E4,1.3E3,3.1E1,2.247E3,3.0344E4,7.6E1,2.2E1,9E0,2.17E3,7.7E1,2.8368E4,1.976E3,3E1,4.6E1,1.3E1,9E0,2.097E3,7.3E1,6.2E1,1.5E1,2.8101E4,2.67E2,1.256E3,7.2E2,2.3E1,7E0,2.5E1,2.1E1,8E0,5E0,6.7E1,2.03E3,1.8E1,5.5E1,5E0,5.7E1,1E1,5E0,2.809E4,1.1E1,2.3E1,2.44E2,1E1,1.246E3,6.07E2,1.13E2,5E0,1.8E1,5E0,2E1,1.5E1,6E0,5.9E1,8E0,1.173E3,8.57E2,1E1,8E0,4.1E1,1.4E1,4.2E1,1.5E1,5E0,5E0],"tree_param":{"num_deleted":"0","num_feature":"16","num_nodes":"67","size_leaf_vector":"0"}},{"base_weights":[-4.9753815E-1,-7.87822E-1,3.6978793E0,-6.63748E-1,-5.6163893E0,4.2588356E1,2.9802415E0,-7.0521635E-1,1.4911858E1,6.154247E1,1.2584169E1,1.9876615E0,2.0916294E1,-1.2515073E0,1.3784334E-2,2.536075E1,4.497577E0,2.5501118E1,9.333363E1,8.487369E0,1.6597036E1,1.4737779E0,2.0379778E1,1.5661341E1,3.4586075E1,-2.1687343E0,-4.2736736E-1,-3.7954215E-2,1.8768963E1,2.7290073E1,8.192586E0,1.9066514E0,1.2925394E1,8.959326E0,3.270004E1,1.4722524E1,1.2379751E0,2.2488651E1,8.899132E0,7.8985114E0,1.8082985E1,2.015068E1,7.6259315E1,-2.008127E0,-8.582005E0,-7.419212E-1,2.0133686E0,1.6320759E1,-8.19663E-2,3.6514687E1,1.2193981E1,2.967251E1,1.5161238E1,2.636451E0,1.2025563E0,5.5027876E0,1.5892294E1,2.4623423E0,-7.5348186E-1,1.2271615E1,2.6191628E1,4.5120897E0,1.0743565E1,1.4109414E0,9.457247E0,2.1640038E1,1.2297574E1,2.5449142E1,7.1131597E0],"categories":[],"categories_nodes":[],"categories_segments":[],"categories_sizes":[],"default_left":[1,1,1,1,0,1,1,1,1,1,1,1,1,1,1,1,1,1,0,0,0,1,1,1,1,1,1,1,1,1,0,1,0,0,0,1,1,1,1,1,1,1,0,0,0,0,0,0,0,0,0,0,0,0,0,0,0,0,0,0,0,1,1,0,0,0,0,0,0],"id":2,"left_children":[1,3,5,7,-1,9,11,13,15,17,19,21,23,25,27,29,31,33,-1,-1,-1,35,37,39,41,43,45,47,49,51,-1,53,-1,-1,-1,55,57,59,-1,63,65,67,-1,-1,-1,-1,-1,-1,-1,-1,-1,-1,-1,-1,-1,-1,-1,-1,-1,-1,-1,-1,-1,-1,-1,-1,-1,-1,-1],"loss_changes":[4.1702984E4,1.9178113E4,6.15931E4,2.018843E4,0E0,2.119918E4,3.869172E4,1.2232492E4,8.803744E3,2.2738898E4,1.4188232E1,1.9466535E4,7.105754E3,1.3375721E4,1.3050901E4,9.108887E2,9.1148883E2,1.0812217E3,0E0,0E0,0E0,6.2492197E3,9.555703E2,1.3310391E3,1.4973734E4,8.591945E3,7.161421E3,9.659782E3,3.4265596E3,1.4051953E2,0E0,1.21575775E1,0E0,0E0,0E0,2.0257031E2,4.829055E3,1.0975117E3,1.473999E-1,2.1601038E2,7.8481836E2,1.3649229E3,0E0,0E0,0E0,0E0,0E0,0E0,0E0,0E0,0E0,0E0,0E0,0E0,0E0,0E0,0E0,0E0,0E0,0E0,0E0,0E0,0E0,0E0,0E0,0E0,0E0,0E0,0E0],"parents":[2147483647,0,0,1,1,2,2,3,3,5,5,6,6,7,7,8,8,9,9,10,10,11,11,12,12,13,13,14,14,15,15,16,16,17,17,21,21,22,22,23,23,24,24,25,25,26,26,27,27,28,28,29,29,31,31,35,35,36,36,37,37,38,38,39,39,40,40,41,41],"right_children":[2,4,6,8,-1,10,12,14,16,18,20,22,24,26,28,30,32,34,-1,-1,-1,36,38,40,42,44,46,48,50,52,-1,54,-1,-1,-1,56,58,60,-1,64,66,68,-1,-1,-1,-1,-1,-1,-1,-1,-1,-1,-1,-1,-1,-1,-1,-1,-1,-1,-1,-1,-1,-1,-1,-1,-1,-1,-1],"split_conditions":[1.32065E2,1.55E1,1.033E3,8.5E0,-5.6163892E-2,2.38105E2,3.77908E5,3.182E1,-5.22977E5,1.78315E2,-9.718466E1,3.5E0,5E-1,-2.8520234E5,2.6439E5,7.185E1,9.5E0,-3.8670016E5,9.333363E-1,8.4873684E-2,1.6597036E-1,-6.205709E6,3.5051E2,2.0774E2,1.2694566E7,1.229972E8,1.318904E4,3.2555E1,5E-1,-1.2035225E1,8.1925854E-2,5E-1,1.2925394E-1,8.9593254E-2,3.2700038E-1,2.79685E4,-1.950613E0,6.095839E6,8.8991314E-2,1.3618695E6,5E-1,5E-1,7.6259315E-1,-2.0081269E-2,-8.582004E-2,-7.419212E-3,2.0133685E-2,1.6320759E-1,-8.19663E-4,3.6514685E-1,1.2193981E-1,2.967251E-1,1.5161237E-1,2.6364509E-2,1.2025562E-2,5.5027876E-2,1.5892294E-1,2.4623422E-2,-7.5348183E-3,1.2271615E-1,2.6191628E-1,4.5120895E-2,1.0743564E-1,1.4109413E-2,9.457246E-2,2.1640037E-1,1.2297574E-1,2.5449142E-1,7.1131594E-2],"split_indices":[0,5,2,5,0,0,2,0,4,0,3,5,11,4,4,0,5,4,0,0,0,4,0,0,2,2,4,0,10,3,0,12,0,0,0,2,3,7,0,2,9,14,0,0,0,0,0,0,0,0,0,0,0,0,0,0,0,0,0,0,0,2147483647,2147483647,0,0,0,0,0,0],"split_type":[0,0,0,0,0,0,0,0,0,0,0,0,0,0,0,0,0,0,0,0,0,0,0,0,0,0,0,0,0,0,0,0,0,0,0,0,0,0,0,0,0,0,0,0,0,0,0,0,0,0,0,0,0,0,0,0,0,0,0,0,0,0,0,0,0,0,0,0,0],"sum_hessian":[3.4236E4,3.2022E4,2.214E3,3.1222E4,8E2,3.8E1,2.176E3,3.1141E4,8.1E1,2.2E1,1.6E1,2.064E3,1.12E2,1.7695E4,1.3446E4,3.9E1,4.2E1,1.2E1,1E1,1.1E1,5E0,2.01E3,5.4E1,8.4E1,2.8E1,8.373E3,9.322E3,1.3411E4,3.5E1,3.4E1,5E0,3.4E1,8E0,5E0,7E0,3.3E1,1.977E3,4.4E1,1E1,2.2E1,6.2E1,2.3E1,5E0,8.171E3,2.02E2,8.259E3,1.063E3,3.4E1,1.3377E4,7E0,2.8E1,2.6E1,8E0,1.4E1,2E1,5E0,2.8E1,1.224E3,7.53E2,1.4E1,3E1,5E0,5E0,5E0,1.7E1,3.5E1,2.7E1,1.5E1,8E0],"tree_param":{"num_deleted":"2","num_feature":"16","num_nodes":"69","size_leaf_vector":"0"}},{"base_weights":[-5.3640985E-1,-5.8667046E-1,2.1762106E1,3.0230755E-1,-1.1408573E0,1.48782E1,3.8046604E1,6.610533E0,8.249538E-2,-1.2634524E0,4.5961366E0,9.207854E0,1.7754244E1,5.7452923E1,1.3916381E1,4.3993225E0,3.5800053E1,3.380122E-1,-2.4074361E0,-1.1217707E0,-5.1041927E0,1.6225567E1,1.3250424E0,1.2347802E1,6.290652E0,1.980396E1,5.885456E0,1.7755253E1,6.101401E0,1.8261759E1,2.461131E0,2.2323418E1,5.229444E1,2.9305336E-1,5.0570328E1,-1.1401782E1,-1.5282767E0,-1.1515192E0,1.3293883E1,-8.976788E0,-2.148499E0,1.3905459E1,3.1203571E1,2.989223E-1,1.9476955E1,7.194163E0,3.07352E0,1.5373776E1,2.5443193E1,1.6684568E1,1.4669354E0,2.8265553E1,1.3651069E1,7.628037E1,1.3367234E1,8.0908574E-2,2.5896974E0,-6.3684244E0,-3.730747E-1,-9.0339106E-1,-2.4761498E0,1.8875273E1,7.011358E0,6.4087677E0,-9.324903E0,-1.8966894E-1,-8.002067E0,1.5804239E1,6.613535E0,1.18508835E1,-7.205998E-2,9.47913E0,2.557939E1],"categories":[],"categories_nodes":[],"categories_segments":[],"categories_sizes":[],"default_left":[1,1,1,1,1,1,1,1,1,1,1,1,1,0,1,1,1,1,1,1,1,1,1,0,1,0,0,0,0,1,1,1,1,1,0,0,1,1,1,1,1,1,0,1,1,0,0,0,0,0,0,0,0,0,0,0,0,0,0,0,0,0,0,0,0,0,0,0,0,0,0,0,0],"id":3,"left_children":[1,3,5,7,9,11,13,15,17,19,21,23,25,-1,27,29,31,33,35,37,39,41,43,-1,45,-1,-1,-1,-1,47,49,51,53,55,-1,-1,57,59,61,63,65,67,-1,69,71,-1,-1,-1,-1,-1,-1,-1,-1,-1,-1,-1,-1,-1,-1,-1,-1,-1,-1,-1,-1,-1,-1,-1,-1,-1,-1,-1,-1],"loss_changes":[3.7375207E4,1.6383113E4,7.2754414E3,1.7707494E4,1.4418564E4,5.862998E2,8.234779E3,2.7439006E4,7.8544824E3,1.0902824E4,1.6276575E4,5.532544E1,6.1835645E2,0E0,1.4334473E2,1.071107E4,4.333883E3,2.5255238E4,9.050826E3,8.327014E3,8.1225703E3,2.398754E3,6.2653315E3,0E0,2.284607E0,0E0,0E0,0E0,0E0,2.339375E2,4.971062E3,2.5893555E2,9.165152E3,5.4506104E3,0E0,0E0,5.8605723E3,6.3416406E3,1.1379263E3,1.7691543E3,4.663685E3,9.678457E2,0E0,1.3773768E3,6.132583E2,0E0,0E0,0E0,0E0,0E0,0E0,0E0,0E0,0E0,0E0,0E0,0E0,0E0,0E0,0E0,0E0,0E0,0E0,0E0,0E0,0E0,0E0,0E0,0E0,0E0,0E0,0E0,0E0],"parents":[2147483647,0,0,1,1,2,2,3,3,4,4,5,5,6,6,7,7,8,8,9,9,10,10,11,11,12,12,14,14,15,15,16,16,17,17,18,18,19,19,20,20,21,21,22,22,24,24,29,29,30,30,31,31,32,32,33,33,36,36,37,37,38,38,39,39,40,40,41,41,43,43,44,44],"right_children":[2,4,6,8,10,12,14,16,18,20,22,24,26,-1,28,30,32,34,36,38,40,42,44,-1,46,-1,-1,-1,-1,48,50,52,54,56,-1,-1,58,60,62,64,66,68,-1,70,72,-1,-1,-1,-1,-1,-1,-1,-1,-1,-1,-1,-1,-1,-1,-1,-1,-1,-1,-1,-1,-1,-1,-1,-1,-1,-1,-1,-1],"split_conditions":[1.3992739E9,5E-1,-4.3211655E6,-7.360859E1,4.5E0,-1.177069E6,-3.3884592E-2,5E-1,3.0633043E1,4.4906868E7,1.12131405E1,-4.8957845E6,-8.988429E6,5.7452923E-1,7.230092E7,-1.767834E6,-1.33605E4,1.3430517E7,3.147081E1,5.000652E8,1.1535376E8,-4.8353875E-1,5.703135E5,1.2347802E-1,-3.4642906E8,1.980396E-1,5.885456E-2,1.7755252E-1,6.1014008E-2,5.4425953E1,-1.4152874E1,-4.3480975E6,-4.157675E5,5E-1,5.057033E-1,-1.14017814E-1,1.4257E4,-4.31963E4,6.107695E8,4.3938873E1,-1.4692718E-2,-7.69689E4,3.120357E-1,-2.1388596E1,5E-1,7.194163E-2,3.0735198E-2,1.5373775E-1,2.5443193E-1,1.6684568E-1,1.4669354E-2,2.826555E-1,1.3651069E-1,7.6280373E-1,1.3367234E-1,8.0908573E-4,2.5896974E-2,-6.368424E-2,-3.730747E-3,-9.03391E-3,-2.4761498E-2,1.8875273E-1,7.011358E-2,6.4087674E-2,-9.324902E-2,-1.8966893E-3,-8.0020666E-2,1.5804239E-1,6.613535E-2,1.1850883E-1,-7.205998E-4,9.479129E-2,2.557939E-1],"split_indices":[7,14,4,3,6,1,3,12,3,2,8,1,4,0,2,4,1,4,3,7,2,3,2,0,4,0,0,0,0,8,8,4,4,12,0,0,7,4,7,8,3,4,0,3,12,0,0,0,0,0,0,0,0,0,0,0,0,0,0,0,0,0,0,0,0,0,0,0,0,0,0,0,0],"split_type":[0,0,0,0,0,0,0,0,0,0,0,0,0,0,0,0,0,0,0,0,0,0,0,0,0,0,0,0,0,0,0,0,0,0,0,0,0,0,0,0,0,0,0,0,0,0,0,0,0,0,0,0,0,0,0,0,0,0,0,0,0,0,0,0,0,0,0,0,0,0,0,0,0],"sum_hessian":[3.3324E4,3.3251E4,7.3E1,1.2769E4,2.0482E4,5.4E1,1.9E1,4.28E2,1.2341E4,2.0055E4,4.27E2,2.1E1,3.3E1,9E0,1E1,4E2,2.8E1,1.1194E4,1.147E3,1.9344E4,7.11E2,9.2E1,3.35E2,7E0,1.4E1,2.7E1,6E0,5E0,5E0,4.7E1,3.53E2,1.8E1,1E1,1.1186E4,8E0,1E2,1.047E3,1.9306E4,3.8E1,3.06E2,4.05E2,8.3E1,9E0,3.19E2,1.6E1,9E0,5E0,3.8E1,9E0,2.1E1,3.32E2,8E0,1E1,5E0,5E0,1.0242E4,9.44E2,2E2,8.47E2,1.6263E4,3.043E3,1.8E1,2E1,6E0,3E2,3.05E2,1E2,6.4E1,1.9E1,8E0,3.11E2,8E0,8E0],"tree_param":{"num_deleted":"0","num_feature":"16","num_nodes":"73","size_leaf_vector":"0"}},{"base_weights":[-6.496093E-1,-4.951849E-1,-5.546291E0,-5.068987E0,-3.8129696E-1,1.3967029E1,-5.9462695E0,2.6185217E0,-5.6071055E-1,2.409948E1,1.0971234E1,-2.3140001E0,-9.648346E0,1.6351291E0,2.413228E1,-6.896733E-1,2.3993583E0,6.0696044E0,1.2303545E1,7.802693E0,-2.4762278E0,1.0469364E0,2.3127449E1,1.20034685E1,3.0425938E1,-1.6154621E0,-3.8894448E-1,9.67604E1,1.26058E0,7.9285374E0,1.4785699E1,-3.9936488E0,-1.9576257E0,2.0017801E1,7.2384834E-1,1.3273133E1,2.5948555E1,1.4221996E1,6.573005E0,1.9798317E1,5.1227425E1,-1.5287896E0,-7.9236145E0,-4.3341082E-1,1.0828417E1,1.1562379E1,2.0299718E2,8.4332424E-1,5.6169666E1],"categories":[],"categories_nodes":[],"categories_segments":[],"categories_sizes":[],"default_left":[1,1,0,1,1,1,1,1,1,0,1,1,0,1,1,1,1,0,1,0,1,1,1,1,1,1,1,1,1,0,0,0,0,0,0,0,0,0,0,0,0,0,0,0,0,0,0,0,0],"id":4,"left_children":[1,3,-1,5,7,9,11,13,15,-1,17,19,-1,21,23,25,27,-1,29,-1,31,33,35,37,39,41,43,45,47,-1,-1,-1,-1,-1,-1,-1,-1,-1,-1,-1,-1,-1,-1,-1,-1,-1,-1,-1,-1],"loss_changes":[2.7255844E4,1.8202664E4,0E0,1.4344369E4,1.835853E4,6.2467773E2,1.0887709E4,4.0647297E4,1.2288422E4,0E0,6.615088E1,7.164607E2,0E0,2.3250088E4,5.681668E3,8.584949E3,1.4417734E5,0E0,2.6168701E1,0E0,3.0543433E2,1.0979172E4,6.7336523E2,1.9856152E2,9.909367E3,4.1096934E3,1.1621838E4,1.4012434E5,3.0377066E4,0E0,0E0,0E0,0E0,0E0,0E0,0E0,0E0,0E0,0E0,0E0,0E0,0E0,0E0,0E0,0E0,0E0,0E0,0E0,0E0],"parents":[2147483647,0,0,1,1,3,3,4,4,5,5,6,6,7,7,8,8,10,10,11,11,13,13,14,14,15,15,16,16,18,18,20,20,21,21,22,22,23,23,24,24,25,25,26,26,27,27,28,28],"right_children":[2,4,-1,6,8,10,12,14,16,-1,18,20,-1,22,24,26,28,-1,30,-1,32,34,36,38,40,42,44,46,48,-1,-1,-1,-1,-1,-1,-1,-1,-1,-1,-1,-1,-1,-1,-1,-1,-1,-1,-1,-1],"split_conditions":[1.55E1,-1.2390905E6,-5.5462908E-2,-1.0257125E8,-3.4696888E6,-1.4774998E7,-3.726008E0,-4.07855E4,7.498017E4,2.409948E-1,5E-1,-3.0210075E6,-9.6483454E-2,4.5E0,3.665516E7,-2.95375E4,9.6586984E4,6.0696043E-2,-3.124517E8,7.802693E-2,-2.8466155E6,-6.1827164E1,5.5E0,-4.447166E6,-4.450658E6,-1.46937985E-2,6.5E0,9.3155E4,5E-1,7.928537E-2,1.4785698E-1,-3.9936487E-2,-1.9576257E-2,2.0017801E-1,7.238483E-3,1.3273133E-1,2.5948554E-1,1.4221996E-1,6.573005E-2,1.9798316E-1,5.122742E-1,-1.5287896E-2,-7.923614E-2,-4.334108E-3,1.0828417E-1,1.1562379E-1,2.0299718E0,8.433242E-3,5.6169665E-1],"split_indices":[5,1,0,4,4,1,3,1,4,0,12,1,0,5,7,1,4,0,4,0,1,3,5,4,4,3,5,4,9,0,0,0,0,0,0,0,0,0,0,0,0,0,0,0,0,0,0,0,0],"split_type":[0,0,0,0,0,0,0,0,0,0,0,0,0,0,0,0,0,0,0,0,0,0,0,0,0,0,0,0,0,0,0,0,0,0,0,0,0,0,0,0,0,0,0,0,0,0,0,0,0],"sum_hessian":[3.605E4,3.495E4,1.1E3,8.47E2,3.4103E4,3.6E1,8.11E2,1.923E3,3.218E4,5E0,3.1E1,4.11E2,4E2,1.841E3,8.2E1,3.0838E4,1.342E3,9E0,2.2E1,5E0,4.06E2,1.794E3,4.7E1,3E1,5.2E1,7.559E3,2.3279E4,1.4E1,1.328E3,1.1E1,1.1E1,1E2,3.06E2,2.8E1,1.766E3,1.3E1,3.4E1,1.9E1,1.1E1,3.7E1,1.5E1,7.459E3,1E2,2.3189E4,9E1,9E0,5E0,1.32E3,8E0],"tree_param":{"num_deleted":"0","num_feature":"16","num_nodes":"49","size_leaf_vector":"0"}},{"base_weights":[-6.344394E-1,-6.8175095E-1,2.3328733E1,-5.484273E-1,-5.484327E0,1.6142757E1,7.139138E1,-5.84477E-1,1.354634E1,1.15107565E1,2.25933E1,-5.973624E-1,2.7332752E1,2.3348763E1,5.4258747E0,6.152383E0,1.3716682E1,2.6256313E1,6.7188993E0,2.0236439E1,-6.1340845E-1,6.9413996E0,4.3439835E1,1.01567135E1,2.5246792E1,2.805349E0,1.3730307E1,2.6958395E1,4.761825E0,1.4141779E-1,-1.0147724E0,2.7450853E1,9.846907E0,1.0752442E0,5.1579695E0],"categories":[],"categories_nodes":[],"categories_segments":[],"categories_sizes":[],"default_left":[1,1,1,1,0,1,0,1,1,1,1,1,1,1,1,0,0,0,0,1,1,0,0,0,1,1,0,0,0,0,0,0,0,0,0],"id":5,"left_children":[1,3,5,7,-1,9,-1,11,13,15,17,19,21,23,25,-1,-1,-1,-1,27,29,-1,-1,-1,31,33,-1,-1,-1,-1,-1,-1,-1,-1,-1],"loss_changes":[3.7973387E4,2.138119E4,2.048998E4,1.6530518E4,0E0,1.2726045E3,0E0,1.1695272E4,6.3534443E3,2.9220654E2,9.845791E2,1.0858806E4,4.3236123E3,4.135918E2,9.675382E2,0E0,0E0,0E0,0E0,2.34375E3,9.811649E3,0E0,0E0,0E0,5.1159766E2,1.4764877E2,0E0,0E0,0E0,0E0,0E0,0E0,0E0,0E0,0E0],"parents":[2147483647,0,0,1,1,2,2,3,3,5,5,7,7,8,8,9,9,10,10,11,11,12,12,13,13,14,14,19,19,20,20,24,24,25,25],"right_children":[2,4,6,8,-1,10,-1,12,14,16,18,20,22,24,26,-1,-1,-1,-1,28,30,-1,-1,-1,32,34,-1,-1,-1,-1,-1,-1,-1,-1,-1],"split_conditions":[2.3137946E9,1.55E1,5E-1,8.5E0,-5.4843266E-2,-6.749934E-2,7.139138E-1,1.4659657E2,-5.22977E5,-5.7172764E7,5E-1,-8.038707E1,3.4226685E1,-3.0092966E8,9.5E0,6.152383E-2,1.3716683E-1,2.6256314E-1,6.718899E-2,1.1588262E-1,5E-1,6.9414E-2,4.3439832E-1,1.01567134E-1,-5.8162584E0,5E-1,1.3730307E-1,2.6958394E-1,4.761825E-2,1.4141778E-3,-1.0147724E-2,2.7450854E-1,9.846906E-2,1.0752441E-2,5.1579695E-2],"split_indices":[7,5,11,5,0,3,0,3,4,4,14,8,8,4,5,0,0,0,0,3,14,0,0,0,8,11,0,0,0,0,0,0,0,0,0],"split_type":[0,0,0,0,0,0,0,0,0,0,0,0,0,0,0,0,0,0,0,0,0,0,0,0,0,0,0,0,0,0,0,0,0,0,0],"sum_hessian":[3.3464E4,3.34E4,6.4E1,3.25E4,9E2,5.8E1,6E0,3.2419E4,8.1E1,3.7E1,2.1E1,3.2406E4,1.3E1,3.5E1,4.6E1,1.3E1,2.4E1,1.6E1,5E0,2.3E1,3.2383E4,7E0,6E0,6E0,2.9E1,3.7E1,9E0,1.5E1,8E0,1.1242E4,2.1141E4,2.4E1,5E0,2.3E1,1.4E1],"tree_param":{"num_deleted":"0","num_feature":"16","num_nodes":"35","size_leaf_vector":"0"}},{"base_weights":[-6.8269247E-1,-1.6045446E0,4.623478E-1,-1.4563317E0,-8.409372E0,3.8027173E-1,2.278525E1,-1.0589578E0,-2.9223058E0,1.3266616E1,-8.949902E0,-3.3536862E-4,2.3810616E0,1.6902912E1,5.532414E1,-1.0838115E0,3.0485003E1,3.0267106E-2,-3.6817124E0,4.8696165E0,-9.21411E0,-3.3087995E-2,2.2836899E1,5.1017967E1,1.8140614E0,1.0735409E1,2.270498E1,-9.433871E-1,-3.8422155E0,1.2556536E1,3.970347E1,-1.542292E-1,2.2082104E1,-1.8368415E0,-4.8061094E0,1.4898364E1,-7.829556E-2,3.7175774E1,1.0499608E1,6.604849E1,9.250273E0,2.0068521E1,1.1851801E0,6.49102E0,1.3372597E1,2.507421E1,9.448622E0,-1.4386647E0,3.95861E-1,-1.1299654E1,-2.6284034E0,1.3415942E-1,-1.0562326E0,1.7416468E-1,-2.2542636E0,-4.879993E0,8.419676E0,2.3105145E1,8.125884E0,1.6199503E1,-9.67854E-2,2.5194748E1,9.248967E1,1.6818565E1,3.8283054E1,1.7226322E1,6.8459404E-1],"categories":[],"categories_nodes":[],"categories_segments":[],"categories_sizes":[],"default_left":[1,1,1,1,1,1,1,1,1,0,1,1,1,1,0,1,1,1,1,0,0,1,1,1,1,1,1,1,1,0,0,1,0,1,1,1,1,0,0,1,0,1,1,0,0,0,0,0,0,0,0,0,0,0,0,0,0,0,0,0,0,0,0,0,0,0,0],"id":6,"left_children":[1,3,5,7,9,11,13,15,17,-1,19,21,23,25,-1,27,29,31,33,-1,-1,35,37,39,41,43,45,47,49,-1,-1,51,-1,53,55,57,59,-1,-1,61,-1,63,65,-1,-1,-1,-1,-1,-1,-1,-1,-1,-1,-1,-1,-1,-1,-1,-1,-1,-1,-1,-1,-1,-1,-1,-1],"loss_changes":[3.749068E4,1.9819996E4,2.9008008E4,1.1212949E4,5.1466895E3,1.2021274E4,9.231197E3,1.1947367E4,9.206707E3,0E0,1.5867422E3,9.923457E3,6.939201E4,1.3732881E3,0E0,5.859125E3,9.861992E2,3.4324736E3,6.7572227E3,0E0,0E0,8.944926E3,2.5804922E3,1.6983977E4,2.8606234E4,1.5100073E2,3.113506E2,9.561939E3,6.575665E3,0E0,0E0,2.1801013E2,0E0,1.041689E3,2.063879E3,1.8477109E3,3.9790005E3,0E0,0E0,1.8024148E4,0E0,3.6255781E3,1.9368795E4,0E0,0E0,0E0,0E0,0E0,0E0,0E0,0E0,0E0,0E0,0E0,0E0,0E0,0E0,0E0,0E0,0E0,0E0,0E0,0E0,0E0,0E0,0E0,0E0],"parents":[2147483647,0,0,1,1,2,2,3,3,4,4,5,5,6,6,7,7,8,8,10,10,11,11,12,12,13,13,15,15,16,16,17,17,18,18,21,21,22,22,23,23,24,24,25,25,26,26,27,27,28,28,31,31,33,33,34,34,35,35,36,36,39,39,41,41,42,42],"right_children":[2,4,6,8,10,12,14,16,18,-1,20,22,24,26,-1,28,30,32,34,-1,-1,36,38,40,42,44,46,48,50,-1,-1,52,-1,54,56,58,60,-1,-1,62,-1,64,66,-1,-1,-1,-1,-1,-1,-1,-1,-1,-1,-1,-1,-1,-1,-1,-1,-1,-1,-1,-1,-1,-1,-1,-1],"split_conditions":[3.2050003E1,7.1756954E8,2.3137946E9,2.7545E1,-4.15E6,1.39925E2,5E-1,1.7135153E2,4.83775E4,1.3266616E-1,4.3938873E1,8.939E3,5.377211E4,-6.819086E-2,5.532414E-1,3.1128996E1,2.8841969E1,5E-1,-2.232782E0,4.8696164E-2,-9.21411E-2,3.3010002E1,4.8515E1,2.84825E2,-1.5888E4,1.4154001E2,5E-1,-2.8408996E4,3.1574356E1,1.2556535E-1,3.9703467E-1,3.1529999E1,2.2082104E-1,-1.9373274E1,-1.5968013E-1,-3.2525E6,-1.43565E8,3.7175772E-1,1.0499608E-1,1.6741E2,9.250273E-2,-2.305389E0,-2.9431244E1,6.49102E-2,1.3372597E-1,2.5074208E-1,9.4486214E-2,-1.4386646E-2,3.95861E-3,-1.1299654E-1,-2.6284033E-2,1.3415942E-3,-1.0562326E-2,1.7416468E-3,-2.2542635E-2,-4.879993E-2,8.4196754E-2,2.3105145E-1,8.125884E-2,1.6199502E-1,-9.6785394E-4,2.5194746E-1,9.2489666E-1,1.6818565E-1,3.8283053E-1,1.7226322E-1,6.8459404E-3],"split_indices":[0,7,7,0,1,0,11,3,2,0,8,1,7,3,0,3,8,15,3,0,0,0,0,0,1,0,14,4,3,0,0,0,0,8,3,4,4,0,0,0,0,3,8,0,0,0,0,0,0,0,0,0,0,0,0,0,0,0,0,0,0,0,0,0,0,0,0],"split_type":[0,0,0,0,0,0,0,0,0,0,0,0,0,0,0,0,0,0,0,0,0,0,0,0,0,0,0,0,0,0,0,0,0,0,0,0,0,0,0,0,0,0,0,0,0,0,0,0,0,0,0,0,0,0,0,0,0,0,0,0,0,0,0,0,0,0,0],"sum_hessian":[3.5514E4,1.9674E4,1.584E4,1.9257E4,4.17E2,1.5784E4,5.6E1,1.5153E4,4.104E3,9E0,4.08E2,1.3263E4,2.521E3,5E1,6E0,1.5143E4,1E1,8.4E2,3.264E3,7E0,4.01E2,1.3246E4,1.7E1,2.7E1,2.494E3,2.7E1,2.3E1,1.4412E4,7.31E2,5E0,5E0,8.35E2,5E0,1.238E3,2.026E3,3.8E1,1.3208E4,6E0,1.1E1,1.9E1,8E0,8.1E1,2.413E3,1.3E1,1.4E1,1.8E1,5E0,1.0521E4,3.891E3,1E2,6.31E2,6.34E2,2.01E2,2.13E2,1.025E3,2.016E3,1E1,1.5E1,2.3E1,1.3E1,1.3195E4,9E0,1E1,7.2E1,9E0,7.1E1,2.342E3],"tree_param":{"num_deleted":"0","num_feature":"16","num_nodes":"67","size_leaf_vector":"0"}},{"base_weights":[-7.069269E-1,-5.185863E-1,-5.3831105E0,-5.5846065E-1,1.2883353E1,-4.7518313E-1,-4.875046E0,1.890631E1,6.334547E0,-5.22114E-1,8.064945E0,1.3267533E-1,-7.429145E0,1.0245329E1,2.4670235E1,2.8283253E0,1.9443148E1,7.104376E-2,-9.102097E-1,5.106423E0,6.084103E1,-1.4214909E-1,7.038823E0,-5.3984833E0,-9.406356E0,8.511921E-1,1.3460767E1,2.715996E1,1.3378599E1,5.1943183E0,1.4910649E0,-1.5360811E-1,2.6879568E0,-9.361526E-1,1.6751472E1,1.6060844E1,2.441296E-1,5.949209E-1,2.661449E0],"categories":[],"categories_nodes":[],"categories_segments":[],"categories_sizes":[],"default_left":[1,1,0,1,1,1,1,1,1,1,1,1,1,1,1,1,0,1,1,1,0,0,0,0,0,0,0,0,0,0,1,0,0,0,0,0,0,0,0],"id":7,"left_children":[1,3,-1,5,7,9,11,13,15,17,19,21,23,25,27,29,-1,31,33,35,-1,-1,-1,-1,-1,-1,-1,-1,-1,-1,37,-1,-1,-1,-1,-1,-1,-1,-1],"loss_changes":[2.961639E4,1.7293475E4,0E0,1.1584823E4,3.5470176E3,1.2686389E4,7.804004E3,1.9406328E3,2.1421382E3,7.2425137E3,2.6390725E4,3.9678055E2,1.5205176E3,6.718286E2,6.0441406E1,1.1423175E2,0E0,7.3171724E3,8.745306E3,8.833916E3,0E0,0E0,0E0,0E0,0E0,0E0,0E0,0E0,0E0,0E0,2.7249443E1,0E0,0E0,0E0,0E0,0E0,0E0,0E0,0E0],"parents":[2147483647,0,0,1,1,3,3,4,4,5,5,6,6,7,7,8,8,9,9,10,10,11,11,12,12,13,13,14,14,15,15,17,17,18,18,19,19,30,30],"right_children":[2,4,-1,6,8,10,12,14,16,18,20,22,24,26,28,30,-1,32,34,36,-1,-1,-1,-1,-1,-1,-1,-1,-1,-1,38,-1,-1,-1,-1,-1,-1,-1,-1],"split_conditions":[1.55E1,8.5E0,-5.3831104E-2,1.4617742E3,-1.2156079E1,1.3871588E9,4.322764E5,-4.958603E1,9.5E0,5E-1,5E-1,5E-1,3.0049824E7,9.5E0,1.15E1,1.5E0,1.9443147E-1,5E-1,7.5E0,1.1360218E8,6.084103E-1,-1.4214909E-3,7.038823E-2,-5.3984832E-2,-9.406356E-2,8.511921E-3,1.3460766E-1,2.715996E-1,1.33786E-1,5.1943183E-2,3.5E0,-1.5360811E-3,2.6879568E-2,-9.361526E-3,1.6751473E-1,1.6060844E-1,2.441296E-3,5.9492085E-3,2.6614489E-2],"split_indices":[5,5,0,8,8,7,7,8,5,14,11,6,2,5,5,6,0,12,6,2,0,0,0,0,0,0,0,0,0,0,6,0,0,0,0,0,0,0,0],"split_type":[0,0,0,0,0,0,0,0,0,0,0,0,0,0,0,0,0,0,0,0,0,0,0,0,0,0,0,0,0,0,0,0,0,0,0,0,0,0,0],"sum_hessian":[3.3632E4,3.2332E4,1.3E3,3.2238E4,9.4E1,3.163E4,6.08E2,4.7E1,4.7E1,3.1459E4,1.71E2,2.06E2,4.02E2,2.1E1,2.6E1,3.9E1,8E0,1.2443E4,1.9016E4,1.64E2,7E0,2E2,6E0,2.02E2,2E2,6E0,1.5E1,1.9E1,7E0,1.2E1,2.7E1,1.1461E4,9.82E2,1.899E4,2.6E1,4.9E1,1.15E2,1.7E1,1E1],"tree_param":{"num_deleted":"0","num_feature":"16","num_nodes":"39","size_leaf_vector":"0"}},{"base_weights":[-4.9466637E-1,-1.4241546E0,1.0933598E0,-1.6679133E0,9.451227E-1,1.0426913E0,2.6797367E1,1.667455E1,-1.6889464E0,3.8523766E1,4.5633003E-1,4.018177E0,7.1260524E-1,1.5747032E1,4.755612E1,2.2434887E1,7.358806E0,-2.5875738E0,-1.273478E0,1.8752771E1,7.337756E1,2.2557194E1,1.0405907E-1,1.706256E0,2.497542E1,1.5917613E1,6.225503E-1,2.8119555E1,-2.629528E0,-1.3367616E0,1.3266774E1,6.9979615E0,2.4960749E1,6.8288054E0,2.6066442E1,-8.211697E-3,2.921661E1,2.1049448E1,8.0274856E-1,1.9044994E1,3.8157917E1,1.0560331E1,3.6479565E1,8.1809515E-1,-2.0236335E0,-2.408857E0,-8.352576E0,-5.4652894E-1,-2.258462E0,5.096448E0,1.8999826E1,-1.0774598E-1,2.5759295E1,2.7500387E1,1.2575599E1,2.4956404E-1,1.1413909E1,9.762567E0,2.094196E1,1.26550665E1,6.526674E1,5.6348186E0,1.32866E1,6.062587E0,5.6473812E1,6.146882E-1,1.8336435E1,-2.9950233E0,3.1027356E-1],"categories":[],"categories_nodes":[],"categories_segments":[],"categories_sizes":[],"default_left":[1,1,1,1,1,1,1,1,1,1,1,1,1,0,0,0,0,1,1,1,0,1,1,1,1,1,1,0,1,1,1,0,0,0,0,1,0,1,1,1,1,1,1,1,1,0,0,0,0,0,0,0,0,0,0,0,0,0,0,0,0,0,0,0,0,0,0,0,0],"id":8,"left_children":[1,3,5,7,9,11,13,15,17,19,21,23,25,-1,-1,-1,-1,27,29,31,-1,33,35,37,39,41,43,-1,45,47,49,-1,-1,-1,-1,51,-1,53,55,57,59,61,63,65,67,-1,-1,-1,-1,-1,-1,-1,-1,-1,-1,-1,-1,-1,-1,-1,-1,-1,-1,-1,-1,-1,-1,-1,-1],"loss_changes":[4.6901707E4,1.1578625E4,1.5223683E4,7.067832E3,3.433168E4,1.1496425E4,3.7782617E3,7.9671045E2,6.7716016E3,1.3786195E4,1.4390683E4,5.6554555E4,1.441793E4,0E0,0E0,0E0,0E0,7.540121E3,1.1462906E4,9.641758E2,0E0,1.2446445E3,5.955666E3,1.8404145E4,7.6151953E3,6.059211E3,5.4282305E3,0E0,7.1987656E3,9.005131E3,2.335745E3,0E0,0E0,0E0,0E0,4.665702E3,0E0,1.8775527E3,5.9229326E3,1.0702148E3,2.1854066E4,5.4853516E2,6.6132197E3,3.477002E4,1.6387288E3,0E0,0E0,0E0,0E0,0E0,0E0,0E0,0E0,0E0,0E0,0E0,0E0,0E0,0E0,0E0,0E0,0E0,0E0,0E0,0E0,0E0,0E0,0E0,0E0],"parents":[2147483647,0,0,1,1,2,2,3,3,4,4,5,5,6,6,7,7,8,8,9,9,10,10,11,11,12,12,17,17,18,18,19,19,21,21,22,22,23,23,24,24,25,25,26,26,28,28,29,29,30,30,35,35,37,37,38,38,39,39,40,40,41,41,42,42,43,43,44,44],"right_children":[2,4,6,8,10,12,14,16,18,20,22,24,26,-1,-1,-1,-1,28,30,32,-1,34,36,38,40,42,44,-1,46,48,50,-1,-1,-1,-1,52,-1,54,56,58,60,62,64,66,68,-1,-1,-1,-1,-1,-1,-1,-1,-1,-1,-1,-1,-1,-1,-1,-1,-1,-1,-1,-1,-1,-1,-1,-1],"split_conditions":[3.6005E1,1.11032E4,1.2536242E6,-1.6979435E6,3.495E0,-3.259793E6,2.85E5,-1.4656473E1,1.137E1,9.91375E4,1.5611309E-1,-5.94455E4,-5.3812492E1,1.5747032E-1,4.755612E-1,2.2434886E-1,7.358806E-2,-8.440752E1,2.4615888E8,3.53E4,7.337756E-1,-4.9728886E1,6.0807544E2,7.8197E4,-4.333718E6,-5.559959E1,9.0887E2,2.8119555E-1,5.75E3,2.6105E1,2.3189999E1,6.9979616E-2,2.4960749E-1,6.828805E-2,2.6066443E-1,2.165E2,2.9216608E-1,6.3375E1,3.9979347E8,4.13355E4,-2.0938E4,2.5E0,7.35585E4,2.82885E2,1.10231E3,-2.408857E-2,-8.352576E-2,-5.465289E-3,-2.2584619E-2,5.096448E-2,1.8999825E-1,-1.0774598E-3,2.5759295E-1,2.7500388E-1,1.2575598E-1,2.4956404E-3,1.1413909E-1,9.7625665E-2,2.094196E-1,1.2655066E-1,6.526674E-1,5.6348186E-2,1.32866E-1,6.0625866E-2,5.647381E-1,6.146882E-3,1.8336435E-1,-2.9950231E-2,3.1027356E-3],"split_indices":[0,4,4,1,0,4,1,8,0,4,3,1,8,0,0,0,0,8,7,4,0,8,8,2,4,8,0,0,4,0,0,0,0,0,0,6,0,0,7,2,1,6,2,0,0,0,0,0,0,0,0,0,0,0,0,0,0,0,0,0,0,0,0,0,0,0,0,0,0],"split_type":[0,0,0,0,0,0,0,0,0,0,0,0,0,0,0,0,0,0,0,0,0,0,0,0,0,0,0,0,0,0,0,0,0,0,0,0,0,0,0,0,0,0,0,0,0,0,0,0,0,0,0,0,0,0,0,0,0,0,0,0,0,0,0,0,0,0,0,0,0],"sum_hessian":[3.1771E4,2.0041E4,1.173E4,1.8172E4,1.869E3,1.1709E4,2.1E1,1.9E1,1.8153E4,2.2E1,1.847E3,1.167E3,1.0542E4,1.6E1,5E0,1E1,9E0,5.736E3,1.2417E4,1.6E1,6E0,2.7E1,1.82E3,1.053E3,1.14E2,6E1,1.0482E4,6E0,5.73E3,1.2365E4,5.2E1,7E0,9E0,6E0,2.1E1,1.815E3,5E0,4.5E1,1.008E3,8.2E1,3.2E1,5E1,1E1,9.762E3,7.2E2,5.52E3,2.1E2,6.659E3,5.706E3,2.3E1,2.9E1,1.81E3,5E0,2.3E1,2.2E1,9.6E2,4.8E1,1.6E1,6.6E1,1.8E1,1.4E1,2E1,3E1,5E0,5E0,9.652E3,1.1E2,5.08E2,2.12E2],"tree_param":{"num_deleted":"0","num_feature":"16","num_nodes":"69","size_leaf_vector":"0"}},{"base_weights":[-6.444555E-1,-1.0304929E0,3.1636152E0,-8.30407E-1,-5.3140283E0,5.271525E1,2.64332E0,-8.647476E-1,1.4323561E1,2.40378E1,7.394225E1,1.8825647E0,2.4279001E1,-1.6839143E0,-4.284909E-1,2.157853E1,4.813062E0,8.716565E0,3.301935E1,1.0548827E2,8.137666E0,1.4940109E0,2.0257517E1,1.736537E1,3.6420174E1,-2.4824522E0,2.4736224E-1,-1.2301443E0,-5.4534182E-2,2.3511671E1,1.0124701E1,1.6885953E0,1.134917E1,1.332686E0,1.909324E1,1.046116E1,2.7496822E1,2.948592E0,2.0150438E1,6.2965313E1,1.4787021E1,-2.1833138E0,-6.47782E0,2.1116177E-2,1.9169159E1,-1.0809889E0,-1.015388E1,-3.758467E-1,1.1716914E0,2.6999905E1,1.2260355E1,2.6022944E0,1.0062139E0,1.0172051E0,7.0759754E0,2.1153591E1,8.91151E0,1.1642516E1,5.1174355E0,3.7834713E1,1.7001589E1,2.3180332E1,1.11722145E1,2.4694994E1,8.098851E1,8.698532E0,1.8132236E1],"categories":[],"categories_nodes":[],"categories_segments":[],"categories_sizes":[],"default_left":[1,1,1,1,0,1,1,1,1,1,1,1,1,1,1,1,1,0,0,0,0,1,1,1,1,1,1,1,1,1,0,1,0,1,1,1,1,0,1,1,1,0,0,0,0,0,0,0,0,0,0,0,0,0,0,0,0,0,0,0,0,0,0,0,0,0,0],"id":9,"left_children":[1,3,5,7,-1,9,11,13,15,17,19,21,23,25,27,29,31,-1,-1,-1,-1,33,35,37,39,41,43,45,47,49,-1,51,-1,53,55,57,59,-1,61,63,65,-1,-1,-1,-1,-1,-1,-1,-1,-1,-1,-1,-1,-1,-1,-1,-1,-1,-1,-1,-1,-1,-1,-1,-1,-1,-1],"loss_changes":[5.0883746E4,2.692475E4,8.1861086E4,1.5649658E4,0E0,1.6533484E4,5.1838195E4,1.0704914E4,4.484173E3,1.7637129E3,3.5648844E4,2.1715422E4,7.7166367E3,1.6055508E4,5.8609365E3,3.6529297E2,6.1517096E2,0E0,0E0,0E0,0E0,8.435465E3,3.8925898E3,2.7720918E3,1.93853E4,8.774125E3,1.3043342E4,8.255678E3,5.2544985E3,5.546074E2,0E0,9.72686E0,0E0,5.356069E3,1.8938379E2,7.022583E1,2.5109492E3,0E0,1.1142324E3,7.0360312E3,1.5300049E2,0E0,0E0,0E0,0E0,0E0,0E0,0E0,0E0,0E0,0E0,0E0,0E0,0E0,0E0,0E0,0E0,0E0,0E0,0E0,0E0,0E0,0E0,0E0,0E0,0E0,0E0],"parents":[2147483647,0,0,1,1,2,2,3,3,5,5,6,6,7,7,8,8,9,9,10,10,11,11,12,12,13,13,14,14,15,15,16,16,21,21,22,22,23,23,24,24,25,25,26,26,27,27,28,28,29,29,31,31,33,33,34,34,35,35,36,36,38,38,39,39,40,40],"right_children":[2,4,6,8,-1,10,12,14,16,18,20,22,24,26,28,30,32,-1,-1,-1,-1,34,36,38,40,42,44,46,48,50,-1,52,-1,54,56,58,60,-1,62,64,66,-1,-1,-1,-1,-1,-1,-1,-1,-1,-1,-1,-1,-1,-1,-1,-1,-1,-1,-1,-1,-1,-1,-1,-1,-1,-1],"split_conditions":[1.11795E2,1.55E1,4.767745E4,8.5E0,-5.3140283E-2,1.7945E2,3.5E0,-2.49855E4,-1.03865E4,-3E3,2.84825E2,1.475944E6,1.5519085E1,3.1035E1,-1.1227047E1,7.185E1,9.5E0,8.7165646E-2,3.3019346E-1,1.0548828E0,8.137666E-2,7.390374E1,-5.135E4,1.3272E2,2.26035E2,2.2628635E2,4.5E0,-1.1326074E1,3.6340992E1,-1.0498957E1,1.01247005E-1,5E-1,1.1349169E-1,2.5E0,-1.032E3,1.3444744E9,2.2255E2,2.9485919E-2,3.3666998E2,-3.6471741E0,2.4741E2,-2.1833139E-2,-6.47782E-2,2.1116177E-4,1.9169159E-1,-1.0809889E-2,-1.015388E-1,-3.758467E-3,1.1716914E-2,2.6999903E-1,1.2260355E-1,2.6022945E-2,1.0062139E-2,1.0172051E-2,7.075975E-2,2.115359E-1,8.9115106E-2,1.1642516E-1,5.1174354E-2,3.7834713E-1,1.7001589E-1,2.3180331E-1,1.1172214E-1,2.4694994E-1,8.098851E-1,8.698532E-2,1.8132237E-1],"split_indices":[0,5,7,5,0,0,5,1,1,1,0,2,8,0,3,0,5,0,0,0,0,8,1,0,0,8,5,3,8,3,0,12,0,5,1,2,0,0,0,3,0,0,0,0,0,0,0,0,0,0,0,0,0,0,0,0,0,0,0,0,0,0,0,0,0,0,0],"split_type":[0,0,0,0,0,0,0,0,0,0,0,0,0,0,0,0,0,0,0,0,0,0,0,0,0,0,0,0,0,0,0,0,0,0,0,0,0,0,0,0,0,0,0,0,0,0,0,0,0,0,0,0,0,0,0,0,0,0,0,0,0,0,0,0,0,0,0],"sum_hessian":[3.4607E4,3.1423E4,3.184E3,3.0023E4,1.4E3,3.1E1,3.153E3,2.9957E4,6.6E1,1.5E1,1.6E1,3.048E3,1.05E2,1.0408E4,1.9549E4,3.6E1,3E1,7E0,8E0,1E1,6E0,2.987E3,6.1E1,7E1,3.5E1,7.363E3,3.045E3,6.217E3,1.3332E4,2.9E1,7E0,2.2E1,8E0,2.962E3,2.5E1,2.8E1,3.3E1,1.2E1,5.8E1,1.4E1,2.1E1,6.853E3,5.1E2,3.011E3,3.4E1,6.117E3,1E2,1.0565E4,2.767E3,2E1,9E0,7E0,1.5E1,2.81E3,1.52E2,1.9E1,6E0,2.1E1,7E0,1.4E1,1.9E1,4.1E1,1.7E1,6E0,8E0,1E1,1.1E1],"tree_param":{"num_deleted":"0","num_feature":"16","num_nodes":"67","size_leaf_vector":"0"}},{"base_weights":[-6.733653E-1,-5.1328605E-1,-5.2612753E0,1.5259125E0,-7.2059745E-1,1.050496E0,2.0546463E1,-2.073946E0,-3.5003954E-1,6.416076E-1,1.8810703E1,8.447048E0,2.433694E1,9.998111E-1,-2.310573E0,-3.6070475E-1,2.3725275E1,2.2670845E1,4.5783198E-1,8.567743E0,2.4528093E1,1.1901149E1,1.5806688E0,2.7578896E1,1.3392561E1,-2.3545435E-1,6.048213E1,-1.7130504E0,-3.5363128E0,3.18474E-1,-7.1106285E-1,6.8437138E0,2.6306858E1,8.308784E-1,-9.29424E0,1.2275956E1,2.8902155E1,-1.1306475E0,3.1508549E1,-1.8002256E0,1.1775753E1,-3.1823063E0,-9.322901E0,1.4001063E-1,7.114133E0,-1.7623564E0,-3.5757163E-1],"categories":[],"categories_nodes":[],"categories_segments":[],"categories_sizes":[],"default_left":[1,1,0,1,1,1,1,1,1,1,1,1,1,1,1,1,0,1,1,0,1,0,0,0,0,1,0,1,1,1,1,0,0,0,0,0,0,0,0,0,0,0,0,0,0,0,0],"id":10,"left_children":[1,3,-1,5,7,9,11,13,15,17,19,21,23,25,27,29,-1,31,33,-1,35,-1,-1,-1,-1,37,-1,39,41,43,45,-1,-1,-1,-1,-1,-1,-1,-1,-1,-1,-1,-1,-1,-1,-1,-1],"loss_changes":[2.4004559E4,1.3357688E4,0E0,2.63253E4,1.4380396E4,2.0650615E4,2.8450938E3,4.4879062E3,5.7985225E3,1.1254136E4,3.3277324E3,4.3671973E2,1.1417988E3,3.2505072E4,4.1801836E3,5.356361E3,0E0,9.6352246E2,1.0070809E4,0E0,1.4340605E3,0E0,0E0,0E0,0E0,1.2432651E4,0E0,4.571925E3,3.7795332E3,9.289087E3,5.51697E3,0E0,0E0,0E0,0E0,0E0,0E0,0E0,0E0,0E0,0E0,0E0,0E0,0E0,0E0,0E0,0E0],"parents":[2147483647,0,0,1,1,3,3,4,4,5,5,6,6,7,7,8,8,9,9,10,10,11,11,12,12,13,13,14,14,15,15,17,17,18,18,20,20,25,25,27,27,28,28,29,29,30,30],"right_children":[2,4,-1,6,8,10,12,14,16,18,20,22,24,26,28,30,-1,32,34,-1,36,-1,-1,-1,-1,38,-1,40,42,44,46,-1,-1,-1,-1,-1,-1,-1,-1,-1,-1,-1,-1,-1,-1,-1,-1],"split_conditions":[1.55E1,-2.8242988E6,-5.261275E-2,4.5E0,-2.49855E4,-1.0079646E0,-6.96608E5,-4.6259277E1,3.095E2,-9.731633E1,-7.4548E4,-1.52065E8,6.666063E0,-1.3165E5,5E-1,-2.03251E5,2.3725274E-1,-2.9766144E1,1.4260667E8,8.567743E-2,-1.8722729E1,1.19011484E-1,1.5806688E-2,2.7578896E-1,1.339256E-1,5E-1,6.0482126E-1,-2.7226975E5,-2.6046E4,-9.385232E-1,-3.498E3,6.843714E-2,2.630686E-1,8.308783E-3,-9.2942394E-2,1.2275956E-1,2.8902155E-1,-1.1306475E-2,3.1508547E-1,-1.8002255E-2,1.1775753E-1,-3.182306E-2,-9.3229E-2,1.4001062E-3,7.1141325E-2,-1.7623564E-2,-3.5757162E-3],"split_indices":[5,4,0,5,1,3,1,8,6,3,1,4,8,4,11,4,0,8,2,0,8,0,0,0,0,11,0,4,1,3,1,0,0,0,0,0,0,0,0,0,0,0,0,0,0,0,0],"split_type":[0,0,0,0,0,0,0,0,0,0,0,0,0,0,0,0,0,0,0,0,0,0,0,0,0,0,0,0,0,0,0,0,0,0,0,0,0,0,0,0,0,0,0,0,0,0,0],"sum_hessian":[3.269E4,3.159E4,1.1E3,2.914E3,2.8676E4,2.845E3,6.9E1,6.162E3,2.2514E4,2.783E3,6.2E1,1.8E1,5.1E1,4.4E2,5.722E3,2.2506E4,8E0,2.1E1,2.762E3,2.4E1,3.8E1,1.1E1,7E0,3.7E1,1.4E1,4.33E2,7E0,3.85E3,1.872E3,7.659E3,1.4847E4,5E0,1.6E1,2.662E3,1E2,1.2E1,2.6E1,4.23E2,1E1,3.827E3,2.3E1,1.767E3,1.05E2,7.465E3,1.94E2,3.734E3,1.1113E4],"tree_param":{"num_deleted":"0","num_feature":"16","num_nodes":"47","size_leaf_vector":"0"}},{"base_weights":[-5.0464046E-1,-7.7645826E-1,4.122173E0,-9.1943747E-1,5.904806E0,3.0411146E0,2.7322151E1,-7.539895E-1,-5.2059035E0,3.1614127E0,8.994802E1,3.5174267E1,2.3836582E0,5.7106297E1,1.731339E1,-7.9855454E-1,1.455642E1,2.1599796E1,5.302719E-1,1.7539624E2,2.8270746E1,5.0855526E1,1.3510005E1,1.8875248E1,1.2762703E0,2.5843088E1,7.514443E1,1.0173757E1,1.9994915E1,-1.7471304E0,-4.2048025E-1,2.2614645E1,3.315674E0,2.8305073E1,1.1454589E1,-1.4974925E-1,5.2546104E1,4.113472E1,1.1983045E1,1.1277245E1,7.7589325E1,4.4287705E0,1.7658175E1,1.5945202E1,3.318048E1,7.421436E-1,1.4912084E1,2.4512081E1,1.0997509E1,-1.7938286E0,2.211806E1,-3.7815502E-1,-8.503451E0,2.514976E1,9.514754E0,1.543655E0,1.0468997E1,9.466678E0,3.4581657E1,3.939815E0,1.2783483E1,2.358183E1,-5.977951E-1,6.993225E0,1.766847E1,1.2307549E1,5.6500668E1,1.662612E0,-5.007976E0,1.6308384E1,4.808532E0,1.3310037E1,2.7827677E1,4.2170687E0,1.2956591E1],"categories":[],"categories_nodes":[],"categories_segments":[],"categories_sizes":[],"default_left":[1,1,1,1,1,1,1,1,0,1,1,1,1,1,1,1,1,1,1,0,1,1,1,1,1,0,0,0,1,1,1,1,1,1,1,1,0,0,0,0,0,0,0,1,1,1,1,1,1,0,0,0,0,0,0,0,0,0,0,0,0,0,0,0,0,0,0,0,0,0,0,0,0,0,0],"id":11,"left_children":[1,3,5,7,9,11,13,15,-1,17,19,21,23,25,27,29,31,33,35,-1,37,39,41,43,45,-1,-1,-1,47,49,51,53,55,57,59,61,-1,-1,-1,-1,-1,-1,-1,63,65,67,69,71,73,-1,-1,-1,-1,-1,-1,-1,-1,-1,-1,-1,-1,-1,-1,-1,-1,-1,-1,-1,-1,-1,-1,-1,-1,-1,-1],"loss_changes":[4.034301E4,2.8951129E4,4.4477164E4,2.1028057E4,1.4583917E5,3.5810133E4,2.157268E4,1.951134E4,0E0,2.9910219E4,9.548711E4,1.0176461E4,3.0468605E4,6.8307383E3,7.8014844E2,1.0212732E4,7.368213E3,4.589586E3,1.918729E4,0E0,1.9475059E3,1.8353492E4,4.8399048E2,3.3429375E3,1.1398007E4,0E0,0E0,0E0,1.2084961E3,9.124322E3,6.961395E3,1.1154805E3,4.366844E2,4.66609E3,2.3880615E2,5.7380273E3,0E0,0E0,0E0,0E0,0E0,0E0,0E0,1.156707E3,6.3974023E3,8.0140776E3,6.755088E2,2.6204492E2,1.2982397E2,0E0,0E0,0E0,0E0,0E0,0E0,0E0,0E0,0E0,0E0,0E0,0E0,0E0,0E0,0E0,0E0,0E0,0E0,0E0,0E0,0E0,0E0,0E0,0E0,0E0,0E0],"parents":[2147483647,0,0,1,1,2,2,3,3,4,4,5,5,6,6,7,7,9,9,10,10,11,11,12,12,13,13,14,14,15,15,16,16,17,17,18,18,20,20,21,21,22,22,23,23,24,24,28,28,29,29,30,30,31,31,32,32,33,33,34,34,35,35,43,43,44,44,45,45,46,46,47,47,48,48],"right_children":[2,4,6,8,10,12,14,16,-1,18,20,22,24,26,28,30,32,34,36,-1,38,40,42,44,46,-1,-1,-1,48,50,52,54,56,58,60,62,-1,-1,-1,-1,-1,-1,-1,64,66,68,70,72,74,-1,-1,-1,-1,-1,-1,-1,-1,-1,-1,-1,-1,-1,-1,-1,-1,-1,-1,-1,-1,-1,-1,-1,-1,-1,-1],"split_conditions":[1.3907E2,8.235E3,3.5E0,1.55E1,1.501319E2,1.138E3,2.2151E2,8.5E0,-5.2059036E-2,5.4409E4,1.9276636E2,2.3628E2,-3.4671192E6,1.1350858E1,2.4741E2,1.383E1,-1.03865E4,1.3815001E1,5E-1,1.7539624E0,4.012535E5,1.7745E2,-4.37E3,-4.30292E6,3.5E0,2.5843087E-1,7.514443E-1,1.0173757E-1,3.4965002E2,3.357685E4,1.318862E8,7.185E1,9.5E0,1.0882E4,7.3915E4,1.5E0,5.25461E-1,4.1134718E-1,1.19830444E-1,1.1277244E-1,7.758932E-1,4.4287704E-2,1.7658174E-1,1.52485E2,1.2404275E6,1.071015E3,3.277295E5,5E-1,3.635E2,-1.7938286E-2,2.2118059E-1,-3.78155E-3,-8.503451E-2,2.514976E-1,9.514754E-2,1.543655E-2,1.0468997E-1,9.466677E-2,3.4581655E-1,3.939815E-2,1.2783483E-1,2.3581828E-1,-5.977951E-3,6.993225E-2,1.7668469E-1,1.2307549E-1,5.650067E-1,1.662612E-2,-5.007976E-2,1.6308384E-1,4.808532E-2,1.3310036E-1,2.7827677E-1,4.2170685E-2,1.2956591E-1],"split_indices":[0,1,5,5,8,2,0,5,0,1,8,0,4,8,0,0,1,0,9,0,2,0,1,4,6,0,0,0,0,4,2,0,5,1,2,6,0,0,0,0,0,0,0,0,2,0,2,15,0,0,0,0,0,0,0,0,0,0,0,0,0,0,0,0,0,0,0,0,0,0,0,0,0,0,0],"split_type":[0,0,0,0,0,0,0,0,0,0,0,0,0,0,0,0,0,0,0,0,0,0,0,0,0,0,0,0,0,0,0,0,0,0,0,0,0,0,0,0,0,0,0,0,0,0,0,0,0,0,0,0,0,0,0,0,0,0,0,0,0,0,0,0,0,0,0,0,0,0,0,0,0,0,0],"sum_hessian":[3.2071E4,3.0293E4,1.778E3,2.966E4,6.33E2,1.701E3,7.7E1,2.856E4,1.1E3,6.15E2,1.8E1,3.2E1,1.669E3,1.7E1,6E1,2.8479E4,8.1E1,7.5E1,5.4E2,6E0,1.2E1,1.7E1,1.5E1,1.03E2,1.566E3,8E0,9E0,1.9E1,4.1E1,8.114E3,2.0365E4,4.6E1,3.5E1,4.3E1,3.2E1,5.35E2,5E0,5E0,7E0,8E0,9E0,6E0,9E0,8.9E1,1.4E1,1.509E3,5.7E1,2.5E1,1.6E1,8.1E3,1.4E1,2.0261E4,1.04E2,3.7E1,9E0,3E1,5E0,1.2E1,3.1E1,6E0,2.6E1,8E0,5.27E2,1.6E1,7.3E1,9E0,5E0,1.302E3,2.07E2,4.9E1,8E0,8E0,1.7E1,5E0,1.1E1],"tree_param":{"num_deleted":"0","num_feature":"16","num_nodes":"75","size_leaf_vector":"0"}},{"base_weights":[-5.208383E-1,-8.130465E-1,2.7169127E0,-1.3661786E0,-8.721798E-2,2.0844197E0,2.3607763E1,-1.2461718E0,-7.874936E0,-1.1921158E-1,6.1178032E1,2.9516493E1,1.5898829E0,1.5645319E1,4.0510513E1,-8.9845735E-1,-3.596539E0,1.0964173E1,-8.74981E0,-1.6149278E-1,1.3334906E1,4.118734E1,1.4413368E1,1.4312081E0,1.973371E1,9.033512E0,1.997556E1,7.39805E1,1.9274353E1,-9.2829126E-1,2.1610104E1,-8.03428E-1,-4.6624746E0,4.048098E0,1.771166E1,-9.239714E0,-7.6406665E0,1.1297137E1,-1.8381009E-1,6.3985705E0,1.4590598E1,6.2761417E1,1.3729357E1,8.025972E0,1.7829226E1,1.7609081E1,1.2699412E0,2.314822E1,1.0665199E1,5.305931E0,1.130812E1,2.1747078E1,6.9291053E0,6.3075256E0,2.6379148E1,-1.2807935E0,1.3262483E-1,1.1885189E1,3.322618E1,1.420967E1,-9.725209E-1,-5.5119977E0,-3.5700881E0,1.9182524E1,7.5927567E0,1.4998382E1,-1.9745502E-1,1.8610338E1,1.1364845E1,1.5785481E1,9.4047E1,1.6757483E1,7.2688913E0,2.3425999E1,5.417649E0,1.7130657E1,1.1595838E0,1.2079535E1,2.4889519E1],"categories":[],"categories_nodes":[],"categories_segments":[],"categories_sizes":[],"default_left":[1,1,1,1,1,1,1,1,1,1,0,1,1,1,1,1,1,1,1,1,1,1,1,1,1,1,1,0,1,1,1,1,1,0,0,0,0,1,1,0,1,1,1,0,0,1,1,0,0,0,0,1,0,0,0,0,0,0,0,0,0,0,0,0,0,0,0,0,0,0,0,0,0,0,0,0,0,0,0],"id":12,"left_children":[1,3,5,7,9,11,13,15,17,19,-1,21,23,25,27,29,31,33,35,37,39,41,43,45,47,49,51,-1,53,55,57,59,61,-1,-1,-1,-1,63,65,-1,67,69,71,-1,-1,73,75,-1,-1,-1,-1,77,-1,-1,-1,-1,-1,-1,-1,-1,-1,-1,-1,-1,-1,-1,-1,-1,-1,-1,-1,-1,-1,-1,-1,-1,-1,-1,-1],"loss_changes":[3.1966432E4,1.2440793E4,3.685924E4,1.3716711E4,2.6287713E4,3.6765445E4,9.768551E3,1.4107561E4,5.4330996E3,7.6264116E3,0E0,7.2734805E3,7.6332285E3,1.3283135E3,1.4917496E4,1.014447E4,6.6169453E3,5.565946E2,2.4533203E1,3.4203945E3,1.7909766E2,1.3678551E4,2.3744824E2,6.8690107E3,2.1842383E2,1.0892676E2,4.844336E2,0E0,1.3255054E3,5.6208174E3,1.4695078E3,1.5939594E3,1.4547344E3,0E0,0E0,0E0,0E0,4.6817578E2,2.7684004E3,0E0,1.7859863E1,1.7606219E4,3.0266846E1,0E0,0E0,1.5900029E3,4.5566836E3,0E0,0E0,0E0,0E0,2.7970312E2,0E0,0E0,0E0,0E0,0E0,0E0,0E0,0E0,0E0,0E0,0E0,0E0,0E0,0E0,0E0,0E0,0E0,0E0,0E0,0E0,0E0,0E0,0E0,0E0,0E0,0E0,0E0],"parents":[2147483647,0,0,1,1,2,2,3,3,4,4,5,5,6,6,7,7,8,8,9,9,11,11,12,12,13,13,14,14,15,15,16,16,17,17,18,18,19,19,20,20,21,21,22,22,23,23,24,24,25,25,26,26,28,28,29,29,30,30,31,31,32,32,37,37,38,38,40,40,41,41,42,42,45,45,46,46,51,51],"right_children":[2,4,6,8,10,12,14,16,18,20,-1,22,24,26,28,30,32,34,36,38,40,42,44,46,48,50,52,-1,54,56,58,60,62,-1,-1,-1,-1,64,66,-1,68,70,72,-1,-1,74,76,-1,-1,-1,-1,78,-1,-1,-1,-1,-1,-1,-1,-1,-1,-1,-1,-1,-1,-1,-1,-1,-1,-1,-1,-1,-1,-1,-1,-1,-1,-1,-1],"split_conditions":[1.3754999E2,2.9535E1,1.736584E6,7.084879E8,2.95E5,2.3195E3,-4.5072755E6,2.8244999E1,4.3938873E1,4.24E3,6.117803E-1,2.38355E2,8.387079E1,-6.62305E4,-1.6219E4,5.8898865E1,-1.9986159E0,1.9279999E1,6.0410308E7,-1.155517E6,3.98945E4,-1.95E3,-9.07274E1,1.43875E2,1.6780191E2,1.41755E2,-5.0458035E6,7.39805E-1,1.4281659E9,-2.4022937E-1,4.820231E1,5E-1,2.8545E1,4.048098E-2,1.771166E-1,-9.239713E-2,-7.6406665E-2,9.488827E6,-7.003116E1,6.3985705E-2,5E-1,1.7395E2,-4.045E2,8.0259725E-2,1.7829224E-1,-1.3878642E1,-5.2284225E1,2.314822E-1,1.0665199E-1,5.305931E-2,1.13081194E-1,-1.9920144E7,6.929105E-2,6.307525E-2,2.6379147E-1,-1.28079355E-2,1.3262483E-3,1.18851885E-1,3.322618E-1,1.420967E-1,-9.725208E-3,-5.5119976E-2,-3.570088E-2,1.9182523E-1,7.592756E-2,1.4998381E-1,-1.97455E-3,1.8610337E-1,1.1364845E-1,1.5785481E-1,9.404699E-1,1.6757482E-1,7.2688915E-2,2.3425998E-1,5.4176487E-2,1.7130657E-1,1.1595838E-2,1.2079534E-1,2.4889518E-1],"split_indices":[0,0,2,7,1,2,4,0,8,1,0,0,8,1,1,3,3,0,2,1,2,1,3,0,8,0,4,0,7,3,8,14,0,0,0,0,0,2,8,0,10,0,1,0,0,3,8,0,0,0,0,4,0,0,0,0,0,0,0,0,0,0,0,0,0,0,0,0,0,0,0,0,0,0,0,0,0,0,0],"split_type":[0,0,0,0,0,0,0,0,0,0,0,0,0,0,0,0,0,0,0,0,0,0,0,0,0,0,0,0,0,0,0,0,0,0,0,0,0,0,0,0,0,0,0,0,0,0,0,0,0,0,0,0,0,0,0,0,0,0,0,0,0,0,0,0,0,0,0,0,0,0,0,0,0,0,0,0,0,0,0],"sum_hessian":[3.3781E4,3.0986E4,2.795E3,1.7584E4,1.3402E4,2.715E3,8E1,1.7268E4,3.16E2,1.3397E4,5E0,4.6E1,2.669E3,5.7E1,2.3E1,1.5045E4,2.223E3,1.3E1,3.03E2,1.3357E4,4E1,2.4E1,2.2E1,2.648E3,2.1E1,2.5E1,3.2E1,7E0,1.6E1,1.5027E4,1.8E1,6.15E2,1.608E3,8E0,5E0,2E2,1.03E2,2.4E1,1.3333E4,8E0,3.2E1,1.2E1,1.2E1,1E1,1.2E1,2.4E1,2.624E3,1.3E1,8E0,1.2E1,1.3E1,2.7E1,5E0,7E0,9E0,1.1279E4,3.748E3,1.2E1,6E0,5E0,6.1E2,9E2,7.08E2,5E0,1.9E1,1E1,1.3323E4,1E1,2.2E1,6E0,6E0,6E0,6E0,1.5E1,9E0,1.6E1,2.608E3,9E0,1.8E1],"tree_param":{"num_deleted":"0","num_feature":"16","num_nodes":"79","size_leaf_vector":"0"}},{"base_weights":[-4.4841212E-1,-1.3243581E0,6.203547E-1,-1.0993865E0,-5.106715E0,5.199089E-1,1.84368E1,-1.2486407E0,2.471632E0,4.9463996E-1,4.1255848E1,2.412358E1,5.746326E0,-1.1795145E0,-1.15157175E1,4.626237E1,-4.968349E-1,6.796815E-2,2.827052E0,1.0453813E1,2.6296352E1,1.07793045E1,1.7525262E0,4.47226E0,-1.2653662E0,-1.2915165E1,9.206162E0,3.1176565E1,9.632506E1,6.1453547E0,-2.2111015E0,1.9196182E1,3.5253957E-2,2.0397418E0,2.7653778E1,2.8865057E1,1.6967775E1,2.5120623E0,4.3475392E-1,1.4788731E0,1.04114365E2,-7.062287E-1,-1.94875E0,2.1629332E1,4.308946E1,1.6784935E0,4.3235767E1,-1.7872443E0,-3.8590198E0,2.3758432E1,5.8429184E0,-4.9206603E-1,7.3136276E-1,1.3562797E0,2.4268362E1,5.556435E1,1.6392076E1],"categories":[],"categories_nodes":[],"categories_segments":[],"categories_sizes":[],"default_left":[1,1,1,1,0,1,1,1,1,1,0,1,1,1,1,1,1,1,1,0,1,0,1,1,1,0,0,1,0,1,1,1,1,1,1,0,0,0,0,0,0,0,0,0,0,0,0,0,0,0,0,0,0,0,0,0,0],"id":13,"left_children":[1,3,5,7,-1,9,11,13,15,17,-1,19,21,23,25,27,29,31,33,-1,35,-1,37,39,41,-1,-1,43,-1,45,47,49,51,53,55,-1,-1,-1,-1,-1,-1,-1,-1,-1,-1,-1,-1,-1,-1,-1,-1,-1,-1,-1,-1,-1,-1],"loss_changes":[3.0421006E4,1.5184553E4,2.6175012E4,8.991311E3,0E0,1.49435E4,5.6405293E3,1.1458295E4,8.8050125E4,1.4479404E4,0E0,1.1134785E3,5.250379E2,7.8121074E3,3.369708E3,2.6468977E4,7.2689805E3,7.6967964E3,4.3866438E4,0E0,1.4667969E2,0E0,1.583186E1,7.157449E4,6.049035E3,0E0,0E0,2.2304766E3,0E0,2.155864E4,3.4033643E2,1.00170264E3,4.5094663E3,3.3099223E4,1.9866484E4,0E0,0E0,0E0,0E0,0E0,0E0,0E0,0E0,0E0,0E0,0E0,0E0,0E0,0E0,0E0,0E0,0E0,0E0,0E0,0E0,0E0,0E0],"parents":[2147483647,0,0,1,1,2,2,3,3,5,5,6,6,7,7,8,8,9,9,11,11,12,12,13,13,14,14,15,15,16,16,17,17,18,18,20,20,22,22,23,23,24,24,27,27,29,29,30,30,31,31,32,32,33,33,34,34],"right_children":[2,4,6,8,-1,10,12,14,16,18,-1,20,22,24,26,28,30,32,34,-1,36,-1,38,40,42,-1,-1,44,-1,46,48,50,52,54,56,-1,-1,-1,-1,-1,-1,-1,-1,-1,-1,-1,-1,-1,-1,-1,-1,-1,-1,-1,-1,-1,-1],"split_conditions":[3.2050003E1,1.55E1,6.5E0,1.05E4,-5.106715E-2,1.3430517E7,-5.3175E3,1.4704594E5,4.5726E4,1.39925E2,4.1255847E-1,-6.303393E1,2E0,-7.0201775E1,1.5205E1,5E-1,9.66085E5,3.2489998E1,3.5E0,1.0453812E-1,-2.5078542E6,1.0779304E-1,-5.23E2,-7.135724E1,1.5E0,-1.2915164E-1,9.2061624E-2,2.0897E4,9.632506E-1,3.9067856E1,5.2535316E7,-1.6183727E5,1.5E0,5E-1,2.2151E2,2.8865057E-1,1.6967775E-1,2.5120623E-2,4.347539E-3,1.4788731E-2,1.0411437E0,-7.0622866E-3,-1.94875E-2,2.162933E-1,4.3089458E-1,1.6784934E-2,4.3235767E-1,-1.7872443E-2,-3.8590197E-2,2.3758432E-1,5.842918E-2,-4.92066E-3,7.3136273E-3,1.3562797E-2,2.4268362E-1,5.556435E-1,1.6392076E-1],"split_indices":[0,5,5,1,0,4,1,4,1,0,0,8,6,8,0,12,1,0,5,0,4,0,1,8,5,0,0,1,0,8,4,4,5,12,0,0,0,0,0,0,0,0,0,0,0,0,0,0,0,0,0,0,0,0,0,0,0],"split_type":[0,0,0,0,0,0,0,0,0,0,0,0,0,0,0,0,0,0,0,0,0,0,0,0,0,0,0,0,0,0,0,0,0,0,0,0,0,0,0,0,0,0,0,0,0,0,0,0,0,0,0,0,0,0,0,0,0],"sum_hessian":[3.2491E4,1.7856E4,1.4635E4,1.6856E4,1E3,1.4555E4,8E1,1.6181E4,6.75E2,1.4548E4,7E0,5.4E1,2.6E1,1.6075E4,1.06E2,4.1E1,6.34E2,1.23E4,2.248E3,9E0,4.5E1,1E1,1.6E1,2.39E2,1.5836E4,1E2,6E0,3.4E1,7E0,1.29E2,5.05E2,1.9E1,1.2281E4,2.181E3,6.7E1,3.2E1,1.3E1,9E0,7E0,2.34E2,5E0,8.712E3,7.124E3,2.2E1,1.2E1,1.17E2,1.2E1,4.05E2,1E2,1.3E1,6E0,6.988E3,5.293E3,2.118E3,6.3E1,1.7E1,5E1],"tree_param":{"num_deleted":"0","num_feature":"16","num_nodes":"57","size_leaf_vector":"0"}},{"base_weights":[-6.5741897E-1,-1.4109433E0,1.0003303E0,-1.2014911E0,-5.0553637E0,8.749729E-1,1.8863848E1,-1.3783466E0,2.8259535E0,2.0422317E-1,2.1768613E0,2.5164387E1,6.2656765E0,1.9925848E1,-1.4037395E0,6.813392E-1,1.578568E1,-6.758089E-2,5.889079E0,6.966065E0,1.384009E0,1.0014744E1,2.1810608E0,2.9663862E1,8.732428E0,-1.326261E0,-8.80939E0,2.8678621E1,2.6834482E-1,3.551995E0,1.7267496E2,1.3795204E1,-1.0286171E-1,2.8224807E0,1.8112501E1,1.8576506E1,3.3511395E0,1.2901845E1,1.1700476E0,2.7523174E0,1.1885968E0,3.2270122E0,1.1073877E1,-1.9980029E0,-8.337317E-1,-9.12202E0,2.7291765E0,-9.552996E-2,2.4698404E1,-9.0792084E-1,3.9714073E1,4.649999E0,2.177791E1,-1.2695257E-1,1.5034724E1,1.732669E1,6.9502497E-1,1.4677111E1,3.9929863E1,1.5330559E1,4.1436474E1,3.484825E-1,1.9491348E1,6.296879E0,1.4949942E1,1.6508144E1,1.0070868E0],"categories":[],"categories_nodes":[],"categories_segments":[],"categories_sizes":[],"default_left":[1,1,1,1,0,1,1,1,1,1,1,0,1,1,1,1,1,1,1,1,1,0,1,0,1,1,1,0,1,1,0,1,1,1,1,1,1,1,1,0,0,0,0,0,0,0,0,0,0,0,0,0,0,0,0,0,0,0,0,0,0,0,0,0,0,0,0],"id":14,"left_children":[1,3,5,7,-1,9,11,13,15,17,19,-1,21,23,25,27,29,31,33,35,37,-1,39,-1,41,43,45,-1,47,49,-1,51,53,55,57,59,61,63,65,-1,-1,-1,-1,-1,-1,-1,-1,-1,-1,-1,-1,-1,-1,-1,-1,-1,-1,-1,-1,-1,-1,-1,-1,-1,-1,-1,-1],"loss_changes":[4.0206855E4,1.687886E4,2.2492371E4,1.4914295E4,0E0,8.723664E3,5.240926E3,1.0901961E4,2.4464664E4,1.0192718E4,1.2879572E4,0E0,3.5446545E2,2.0979658E3,1.14676875E4,8.74915E3,2.3869006E5,3.0826406E3,1.1180538E4,2.0105457E4,7.1583813E3,0E0,1.9614868E0,0E0,1.0899805E2,6.554828E3,7.96501E2,0E0,6.6629414E3,1.9103135E4,0E0,9.6552124E2,2.2950857E3,7.474182E3,3.324961E3,7.1885703E3,1.7917916E4,5.286875E2,7.1303457E3,0E0,0E0,0E0,0E0,0E0,0E0,0E0,0E0,0E0,0E0,0E0,0E0,0E0,0E0,0E0,0E0,0E0,0E0,0E0,0E0,0E0,0E0,0E0,0E0,0E0,0E0,0E0,0E0],"parents":[2147483647,0,0,1,1,2,2,3,3,5,5,6,6,7,7,8,8,9,9,10,10,12,12,13,13,14,14,15,15,16,16,17,17,18,18,19,19,20,20,22,22,24,24,25,25,26,26,28,28,29,29,31,31,32,32,33,33,34,34,35,35,36,36,37,37,38,38],"right_children":[2,4,6,8,-1,10,12,14,16,18,20,-1,22,24,26,28,30,32,34,36,38,-1,40,-1,42,44,46,-1,48,50,-1,52,54,56,58,60,62,64,66,-1,-1,-1,-1,-1,-1,-1,-1,-1,-1,-1,-1,-1,-1,-1,-1,-1,-1,-1,-1,-1,-1,-1,-1,-1,-1,-1,-1],"split_conditions":[4.5045E1,1.55E1,6.5E0,1.53345E4,-5.0553635E-2,8.16353E6,-5.4565E3,-3.5723335E6,9.8890335E1,2.18715E2,-2.186449E1,2.5164387E-1,2E0,2.3595001E1,1.3756365E9,5E-1,5E-1,-7.26625E4,1.5E0,5.893484E7,-2.0448936E7,1.0014743E-1,6.9715E1,2.966386E-1,1.4354724E9,1.5105E1,2.9935E1,2.867862E-1,1.846904E8,3.5E0,1.7267495E0,-1.4095E7,1.6357242E2,8.524943E0,4.5785973E1,-1.1E3,8.659696E7,-1.1753085E8,9.3883E6,2.7523173E-2,1.1885968E-2,3.2270122E-2,1.1073877E-1,-1.9980028E-2,-8.337317E-3,-9.122019E-2,2.7291765E-2,-9.552996E-4,2.4698403E-1,-9.079209E-3,3.971407E-1,4.649999E-2,2.177791E-1,-1.2695257E-3,1.5034723E-1,1.732669E-1,6.9502494E-3,1.467711E-1,3.992986E-1,1.5330559E-1,4.1436473E-1,3.484825E-3,1.9491348E-1,6.296878E-2,1.4949942E-1,1.6508144E-1,1.0070867E-2],"split_indices":[0,5,5,1,0,7,1,1,8,0,8,0,6,0,7,6,12,1,5,7,4,0,0,0,7,0,0,0,7,6,0,4,8,8,8,1,7,4,7,0,0,0,0,0,0,0,0,0,0,0,0,0,0,0,0,0,0,0,0,0,0,0,0,0,0,0,0],"split_type":[0,0,0,0,0,0,0,0,0,0,0,0,0,0,0,0,0,0,0,0,0,0,0,0,0,0,0,0,0,0,0,0,0,0,0,0,0,0,0,0,0,0,0,0,0,0,0,0,0,0,0,0,0,0,0,0,0,0,0,0,0,0,0,0,0,0,0],"sum_hessian":[3.2183E4,2.2126E4,1.0057E4,2.0926E4,1.2E3,9.989E3,6.8E1,2.0047E4,8.79E2,6.594E3,3.395E3,4.4E1,2.4E1,2.2E1,2.0025E4,7.56E2,1.23E2,6.295E3,2.99E2,4.8E2,2.915E3,1.1E1,1.3E1,1E1,1.2E1,1.982E4,2.05E2,9E0,7.47E2,1.16E2,7E0,1.4E1,6.281E3,2.41E2,5.8E1,1.12E2,3.68E2,5.1E1,2.864E3,6E0,7E0,5E0,7E0,8.382E3,1.1438E4,2E2,5E0,7.38E2,9E0,1.05E2,1.1E1,8E0,6E0,6.273E3,8E0,2.9E1,2.12E2,5.3E1,5E0,1.01E2,1.1E1,3.12E2,5.6E1,1.4E1,3.7E1,2.8E1,2.836E3],"tree_param":{"num_deleted":"0","num_feature":"16","num_nodes":"67","size_leaf_vector":"0"}},{"base_weights":[-6.5071696E-1,-9.1511136E-1,3.092333E0,-7.900596E-1,-5.0052977E0,2.249199E0,2.766771E1,-8.223689E-1,1.2780214E1,2.205566E1,1.854056E0,5.0371544E1,1.5928891E1,-7.246318E-1,-5.2256565E0,1.8775114E1,4.7431016E0,3.1409824E1,1.2803786E1,1.4192908E0,1.7270487E1,2.7103731E1,7.7172424E1,1.7749775E1,1.1290338E1,-7.3436993E-1,2.5359636E1,4.3568268E-1,-7.5413456E0,8.419695E0,2.4091091E1,1.6419026E0,1.7121813E1,4.6591747E1,1.489914E1,5.760105E0,1.5294299E1,1.3866389E1,1.2581917E0,1.1791273E1,2.9353977E1,2.1511572E1,1.1597803E1,-1.5286773E0,-4.9755523E-1,1.3680868E1,-9.319281E-2,-5.2134004E0,-9.063922E0,8.781773E-1,1.204409E1,1.977639E0,3.8173816E-1,1.8464504E1,9.065235E0,1.5327724E1,6.381119E0,1.1417267E0,1.7923487E1,1.4052963E1,6.7116475E0,1.848577E1,4.115094E1],"categories":[],"categories_nodes":[],"categories_segments":[],"categories_sizes":[],"default_left":[1,1,1,1,0,1,1,1,1,1,1,1,1,1,1,1,1,1,1,1,1,0,0,1,0,1,0,1,1,1,0,1,0,0,0,0,1,1,1,1,1,0,0,0,0,0,0,0,0,0,0,0,0,0,0,0,0,0,0,0,0,0,0],"id":15,"left_children":[1,3,5,7,-1,9,11,13,15,17,19,21,23,25,27,29,31,33,35,37,39,-1,-1,41,-1,43,-1,45,47,49,-1,51,-1,-1,-1,-1,53,55,57,59,61,-1,-1,-1,-1,-1,-1,-1,-1,-1,-1,-1,-1,-1,-1,-1,-1,-1,-1,-1,-1,-1,-1],"loss_changes":[3.580396E4,1.7274143E4,4.9334977E4,1.4396783E4,0E0,1.7997164E4,1.9450055E4,1.4070516E4,3.5800674E3,3.090129E3,1.5145606E4,1.2030219E4,6.3743164E1,8.1666523E3,9.314602E3,2.0164844E3,1.3257737E3,3.8755898E3,2.799082E2,4.390621E3,3.4126543E3,0E0,0E0,3.341543E2,0E0,6.016668E3,0E0,1.4596012E3,1.6919082E3,4.7084827E2,0E0,1.1605698E1,0E0,0E0,0E0,0E0,2.0683594E1,1.1066211E2,4.1922217E3,3.3983594E2,7.864004E2,0E0,0E0,0E0,0E0,0E0,0E0,0E0,0E0,0E0,0E0,0E0,0E0,0E0,0E0,0E0,0E0,0E0,0E0,0E0,0E0,0E0,0E0],"parents":[2147483647,0,0,1,1,2,2,3,3,5,5,6,6,7,7,8,8,9,9,10,10,11,11,12,12,13,13,14,14,15,15,16,16,17,17,18,18,19,19,20,20,23,23,25,25,27,27,28,28,29,29,31,31,36,36,37,37,38,38,39,39,40,40],"right_children":[2,4,6,8,-1,10,12,14,16,18,20,22,24,26,28,30,32,34,36,38,40,-1,-1,42,-1,44,-1,46,48,50,-1,52,-1,-1,-1,-1,54,56,58,60,62,-1,-1,-1,-1,-1,-1,-1,-1,-1,-1,-1,-1,-1,-1,-1,-1,-1,-1,-1,-1,-1,-1],"split_conditions":[1.3518E2,1.55E1,3.5E0,8.5E0,-5.0052974E-2,3.583E3,2.2151E2,1.4617742E3,-1.2156079E1,2.1365E2,1.5843835E6,1.8035791E1,5E-1,3.005E2,5E-1,-4.958603E1,9.5E0,2.5E2,-9.2653404E1,-4.8743637E1,-8.716962E-2,2.710373E-1,7.717242E-1,3.53185E2,1.1290337E-1,1.1365E1,2.5359637E-1,2.635E1,1.5085E1,9.5E0,2.409109E-1,-1.6727211E0,1.7121813E-1,4.6591747E-1,1.489914E-1,5.760105E-2,1.904E3,-1.9436091E0,1.0039676E2,7.221901E8,2.5E0,2.1511571E-1,1.15978025E-1,-1.5286773E-2,-4.975552E-3,1.3680868E-1,-9.3192805E-4,-5.2134003E-2,-9.063922E-2,8.781773E-3,1.204409E-1,1.9776389E-2,3.8173816E-3,1.8464504E-1,9.065235E-2,1.5327725E-1,6.381118E-2,1.1417267E-2,1.7923486E-1,1.4052963E-1,6.711648E-2,1.8485768E-1,4.115094E-1],"split_indices":[0,5,5,5,0,2,0,8,8,0,2,8,11,6,14,8,5,2,3,8,3,0,0,0,0,0,0,0,0,5,0,3,0,0,0,0,2,3,8,2,5,0,0,0,0,0,0,0,0,0,0,0,0,0,0,0,0,0,0,0,0,0,0],"split_type":[0,0,0,0,0,0,0,0,0,0,0,0,0,0,0,0,0,0,0,0,0,0,0,0,0,0,0,0,0,0,0,0,0,0,0,0,0,0,0,0,0,0,0,0,0,0,0,0,0,0,0,0,0,0,0,0,0,0,0,0,0,0,0],"sum_hessian":[3.6171E4,3.3786E4,2.385E3,3.2786E4,1E3,2.308E3,7.7E1,3.271E4,7.6E1,4.3E1,2.265E3,2.4E1,5.3E1,3.2002E4,7.08E2,4.2E1,3.4E1,1.9E1,2.4E1,2.205E3,6E1,1.5E1,9E0,3.4E1,1.9E1,3.1992E4,1E1,2.06E2,5.02E2,1.6E1,2.6E1,2.9E1,5E0,8E0,1.1E1,8E0,1.6E1,2.6E1,2.179E3,4.4E1,1.6E1,1.8E1,1.6E1,7.345E3,2.4647E4,6E0,2E2,2.02E2,3E2,6E0,1E1,2.2E1,7E0,8E0,8E0,2E1,6E0,2.166E3,1.3E1,2.8E1,1.6E1,1.1E1,5E0],"tree_param":{"num_deleted":"0","num_feature":"16","num_nodes":"63","size_leaf_vector":"0"}},{"base_weights":[-5.301135E-1,-1.4079847E0,5.115631E-1,-1.8884063E0,-4.4817396E-2,4.3084323E-1,1.7946299E1,-1.6153024E0,-4.3753777E0,2.7273016E1,-1.4681561E-1,4.08405E-1,5.0181496E1,2.3311434E1,5.273412E0,1.969058E1,-1.6426481E0,1.7613708E1,-4.6808605E0,1.0117065E1,5.1341778E1,1.5054363E1,-2.1006632E-1,4.38118E-2,2.3946688E0,9.025878E0,2.4849195E1,1.4312326E0,9.553946E0,2.362713E1,7.878693E0,-1.5373938E0,-7.8011837E0,2.1876442E1,6.283339E0,-5.388836E0,2.4059322E0,4.749556E0,1.228437E1,1.925852E1,5.6362796E0,-2.383931E0,1.0502659E-1,1.3342809E1,1.2379792E-2,4.3798973E1,1.7837697E0,2.2120075E0,4.191588E-1,-1.5707854E0,1.3563113E1,-9.321578E0,-4.5978813E0,8.8260144E-2,1.9081402E1,-1.0152489E0,-9.153761E0,6.4712305E0,-5.121858E-1,1.9601126E1,8.495884E0,-1.2417336E-2,1.0154406E1,6.0328323E1,1.0386619E1,1.1540484E0,2.6094526E1],"categories":[],"categories_nodes":[],"categories_segments":[],"categories_sizes":[],"default_left":[1,1,1,1,1,1,1,1,1,1,1,1,0,1,1,1,1,1,1,1,0,1,1,1,1,0,0,1,0,0,0,1,0,0,0,1,1,0,0,0,0,1,1,1,1,1,1,0,0,0,0,0,0,0,0,0,0,0,0,0,0,0,0,0,0,0,0],"id":16,"left_children":[1,3,5,7,9,11,13,15,17,19,21,23,-1,25,27,29,31,33,35,37,-1,39,41,43,45,-1,-1,47,-1,-1,-1,49,-1,-1,-1,51,53,-1,-1,-1,-1,55,57,59,61,63,65,-1,-1,-1,-1,-1,-1,-1,-1,-1,-1,-1,-1,-1,-1,-1,-1,-1,-1,-1,-1],"loss_changes":[3.1259445E4,1.2148133E4,2.198673E4,9.301789E3,1.3482895E4,1.7333354E4,4.649541E3,7.2670645E3,9.273545E3,6.393749E3,4.640685E3,1.1267281E4,0E0,6.498203E2,3.6737006E2,3.7166748E2,7.9801367E3,6.427539E2,6.7440605E3,3.453882E1,0E0,5.748091E2,3.2897236E3,5.49572E3,6.087782E4,0E0,0E0,9.998659E0,0E0,0E0,0E0,6.165465E3,0E0,0E0,0E0,3.7030156E3,4.7503687E3,0E0,0E0,0E0,0E0,5.614988E3,1.649397E4,6.072837E2,3.2995906E3,1.8076734E4,3.63752E4,0E0,0E0,0E0,0E0,0E0,0E0,0E0,0E0,0E0,0E0,0E0,0E0,0E0,0E0,0E0,0E0,0E0,0E0,0E0,0E0],"parents":[2147483647,0,0,1,1,2,2,3,3,4,4,5,5,6,6,7,7,8,8,9,9,10,10,11,11,13,13,14,14,15,15,16,16,17,17,18,18,19,19,21,21,22,22,23,23,24,24,27,27,31,31,35,35,36,36,41,41,42,42,43,43,44,44,45,45,46,46],"right_children":[2,4,6,8,10,12,14,16,18,20,22,24,-1,26,28,30,32,34,36,38,-1,40,42,44,46,-1,-1,48,-1,-1,-1,50,-1,-1,-1,52,54,-1,-1,-1,-1,56,58,60,62,64,66,-1,-1,-1,-1,-1,-1,-1,-1,-1,-1,-1,-1,-1,-1,-1,-1,-1,-1,-1,-1],"split_conditions":[3.2050003E1,-2.630676E4,6.5E0,-4.31248E4,-7.1130857E0,2.469575E5,-5.625E3,-3.643027E6,3.3729212E5,8.56685E4,2.632E3,1.4677E2,5.0181496E-1,-3.9862485E6,1.7906999E2,2.298E1,8.615835E7,2.2873798E5,1.5589025E6,-1.2342789E1,5.134178E-1,1.7231472E-1,1.128136E4,3.3015E1,2.159754E5,9.025878E-2,2.4849194E-1,-3.145E2,9.553945E-2,2.362713E-1,7.878693E-2,-2.5294745E-1,-7.801183E-2,2.1876441E-1,6.283339E-2,-4.2465266E4,1.6925E1,4.749556E-2,1.22843705E-1,1.925852E-1,5.6362793E-2,6.55E-1,3.495E0,-1.25E5,1.01745375E5,2.6094E2,3.5E0,2.2120075E-2,4.1915877E-3,-1.5707854E-2,1.3563113E-1,-9.321578E-2,-4.597881E-2,8.826014E-4,1.9081402E-1,-1.0152489E-2,-9.153761E-2,6.47123E-2,-5.121858E-3,1.9601126E-1,8.495884E-2,-1.2417336E-4,1.0154405E-1,6.032832E-1,1.0386618E-1,1.1540485E-2,2.6094526E-1],"split_indices":[0,4,5,4,3,1,1,1,7,2,2,0,0,1,0,0,2,7,7,3,0,3,7,0,7,0,0,1,0,0,0,3,0,0,0,4,0,0,0,0,0,0,0,1,4,0,5,0,0,0,0,0,0,0,0,0,0,0,0,0,0,0,0,0,0,0,0],"split_type":[0,0,0,0,0,0,0,0,0,0,0,0,0,0,0,0,0,0,0,0,0,0,0,0,0,0,0,0,0,0,0,0,0,0,0,0,0,0,0,0,0,0,0,0,0,0,0,0,0,0,0,0,0,0,0,0,0,0,0,0,0,0,0,0,0,0,0],"sum_hessian":[3.418E4,1.8548E4,1.5632E4,1.3714E4,4.834E3,1.5562E4,7E1,1.236E4,1.354E3,1.6E1,4.818E3,1.5557E4,5E0,4.8E1,2.2E1,1.4E1,1.2346E4,1.7E1,1.337E3,1.1E1,5E0,1.8E1,4.8E3,1.3146E4,2.411E3,6E0,4.2E1,1.3E1,9E0,9E0,5E0,1.2141E4,2.05E2,1.1E1,6E0,1.216E3,1.21E2,5E0,6E0,1.1E1,7E0,6.06E2,4.194E3,2.9E1,1.3117E4,3.3E1,2.378E3,6E0,7E0,1.2116E4,2.5E1,2E2,1.016E3,1.08E2,1.3E1,5.06E2,1E2,3.69E2,3.825E3,1E1,1.9E1,1.3087E4,3E1,2.1E1,1.2E1,2.32E3,5.8E1],"tree_param":{"num_deleted":"0","num_feature":"16","num_nodes":"67","size_leaf_vector":"0"}},{"base_weights":[-5.6289047E-1,-5.9724164E-1,2.1094156E1,-1.2263905E0,4.7159895E-1,4.2188408E1,1.2754574E1,-1.0507532E0,-4.9407225E0,3.922794E-1,1.7101978E1,7.336161E1,1.1929483E1,7.6313663E0,1.8422691E1,-9.2477024E-1,-5.971071E0,3.554251E-1,2.1172846E1,2.2664549E1,5.6989636E0,3.8333426E0,8.387439E0,1.0893056E1,2.1918236E1,4.64034E0,-9.9361014E-1,1.8947648E0,-8.388733E0,-6.845643E-3,2.009397E0,3.183637E1,1.1240785E1,9.556016E0,2.5263224E1,8.902958E0,1.8646662E0,9.765055E0,4.5336747E0,5.831858E1,7.6718515E-1,-1.5088405E-1,-1.4642688E0,3.4906405E-1,1.5276769E1,-4.319315E-1,1.3035833E0,5.4820385E1,1.5285981E0,2.7002528E0,3.769485E-1],"categories":[],"categories_nodes":[],"categories_segments":[],"categories_sizes":[],"default_left":[1,1,1,1,1,1,1,1,0,1,1,0,0,1,1,1,1,1,1,1,1,0,1,0,0,1,1,1,0,1,1,0,0,0,0,0,1,0,0,0,0,0,0,0,0,0,0,0,0,0,0],"id":17,"left_children":[1,3,5,7,9,11,13,15,-1,17,19,-1,-1,21,23,25,27,29,31,33,35,-1,37,-1,-1,39,41,43,-1,45,47,-1,-1,-1,-1,-1,49,-1,-1,-1,-1,-1,-1,-1,-1,-1,-1,-1,-1,-1,-1],"loss_changes":[2.630654E4,2.3720832E4,8.775176E3,1.4474961E4,1.7228729E4,1.239868E4,9.6749414E2,1.3132809E4,0E0,9.949471E3,3.674336E3,0E0,0E0,1.0357422E1,2.2570312E1,7.9306113E3,1.0091748E4,7.783448E3,1.7202158E3,9.138242E2,2.4935449E2,0E0,1.7636963E1,0E0,0E0,5.251026E4,8.101254E3,2.595591E3,0E0,5.9381094E3,5.9096086E4,0E0,0E0,0E0,0E0,0E0,1.4124805E1,0E0,0E0,0E0,0E0,0E0,0E0,0E0,0E0,0E0,0E0,0E0,0E0,0E0,0E0],"parents":[2147483647,0,0,1,1,2,2,3,3,4,4,5,5,6,6,7,7,9,9,10,10,13,13,14,14,15,15,16,16,17,17,18,18,19,19,20,20,22,22,25,25,26,26,27,27,29,29,30,30,36,36],"right_children":[2,4,6,8,10,12,14,16,-1,18,20,-1,-1,22,24,26,28,30,32,34,36,-1,38,-1,-1,40,42,44,-1,46,48,-1,-1,-1,-1,-1,50,-1,-1,-1,-1,-1,-1,-1,-1,-1,-1,-1,-1,-1,-1],"split_conditions":[3.9844513E9,4.5075E1,6.1833165E9,1.55E1,6.5E0,2.2616E2,2.55015E2,6.3412416E8,-4.9407225E-2,1.5487751E6,7.0958285E0,7.336161E-1,1.1929483E-1,9.86085E9,-1.468925E7,-6.83152E1,4.296318E1,1.6392E2,5E-1,-3.0092966E8,2.5E0,3.8333423E-2,1.8810767E11,1.0893056E-1,2.1918236E-1,6.685E0,5E-1,5.6835964E7,-8.3887324E-2,8.804707E6,4.7E1,3.183637E-1,1.1240784E-1,9.5560156E-2,2.5263223E-1,8.902958E-2,6.9715E1,9.765054E-2,4.5336746E-2,5.831858E-1,7.671851E-3,-1.5088405E-3,-1.46426875E-2,3.4906405E-3,1.5276769E-1,-4.319315E-3,1.3035832E-2,5.482038E-1,1.528598E-2,2.7002526E-2,3.769485E-3],"split_indices":[7,0,7,5,5,0,0,7,0,4,8,0,0,7,4,8,8,0,10,4,6,0,7,0,0,0,14,2,0,7,2,0,0,0,0,0,0,0,0,0,0,0,0,0,0,0,0,0,0,0,0],"split_type":[0,0,0,0,0,0,0,0,0,0,0,0,0,0,0,0,0,0,0,0,0,0,0,0,0,0,0,0,0,0,0,0,0,0,0,0,0,0,0,0,0,0,0,0,0,0,0,0,0,0,0],"sum_hessian":[3.5325E4,3.5271E4,5.4E1,2.2202E4,1.3069E4,1.3E1,4.1E1,2.1202E4,1E3,1.3009E4,6E1,5E0,8E0,2.4E1,1.7E1,2.0675E4,5.27E2,1.2988E4,2.1E1,3.9E1,2.1E1,6E0,1.8E1,8E0,9E0,2.51E2,2.0424E4,1.24E2,4.03E2,1.0656E4,2.332E3,8E0,1.3E1,8E0,3.1E1,1E1,1.1E1,1.1E1,7E0,1.5E1,2.36E2,7.32E3,1.3104E4,1.13E2,1.1E1,8.047E3,2.609E3,1.9E1,2.313E3,6E0,5E0],"tree_param":{"num_deleted":"0","num_feature":"16","num_nodes":"51","size_leaf_vector":"0"}},{"base_weights":[-5.1904666E-1,-1.2749945E0,7.435722E-1,-1.0985019E0,-6.8174095E0,6.279283E-1,1.8046087E1,-9.378909E-1,-4.894152E0,-7.2141433E0,1.4783684E1,1.4182246E-1,3.1081972E0,2.300676E1,7.0129027E0,-1.1022906E0,2.075281E0,-8.24981E0,-2.3785856E0,1.0234595E-1,2.365081E1,4.6451466E1,2.5982268E0,9.479568E0,2.4905874E1,1.1897491E1,1.8622743E0,-1.0535219E0,-8.345996E0,1.6187151E1,-3.8830328E-1,-8.854317E0,-7.297366E0,6.4783983E0,-3.3739448E0,-3.071757E-1,1.1919132E0,3.562255E1,8.146082E0,7.256163E1,1.0423541E1,1.6884644E0,2.1985348E1,2.8012217E1,1.612854E1,1.3978088E1,5.823156E0,2.3346786E0,5.878462E-1,-1.3837056E0,-2.7047267E-2,1.5552004E1,-1.2321688E1,1.07332565E2,3.3179839E0,4.0328355E0,-1.1240811E0,-7.8311706E0,8.072264E0,2.7636337E0,8.342192E0,2.3843903E1,-3.794302E-1,8.827048E-1,2.0746042E1,6.279325E-1,6.743284E0,4.58833E1,1.5817734E1],"categories":[],"categories_nodes":[],"categories_segments":[],"categories_sizes":[],"default_left":[1,1,1,1,1,1,1,1,0,1,0,1,1,1,1,1,1,1,1,1,1,1,1,0,1,1,1,1,1,1,1,0,1,1,0,1,1,0,0,0,0,1,1,0,0,0,0,0,0,0,0,0,0,0,0,0,0,0,0,0,0,0,0,0,0,0,0,0,0],"id":18,"left_children":[1,3,5,7,9,11,13,15,-1,17,-1,19,21,23,25,27,29,31,33,35,37,39,41,-1,43,45,47,49,51,53,55,-1,57,59,-1,61,63,-1,-1,-1,-1,65,67,-1,-1,-1,-1,-1,-1,-1,-1,-1,-1,-1,-1,-1,-1,-1,-1,-1,-1,-1,-1,-1,-1,-1,-1,-1,-1],"loss_changes":[3.112061E4,1.9934336E4,2.441068E4,1.2041238E4,5.6037617E3,1.4626346E4,4.1106035E3,9.40016E3,0E0,3.0607227E3,0E0,9.411181E3,4.370093E4,9.407383E2,6.6013086E2,6.336621E3,3.4152566E4,1.6383594E2,1.031094E3,4.521198E3,2.5751475E3,2.0123293E4,3.4619066E4,0E0,3.7788086E2,1.4142212E1,6.8878593E0,6.0561816E3,1.1784584E4,1.7054072E5,2.7350603E3,0E0,1.8411445E3,3.6973114E1,0E0,1.2870197E4,1.669954E4,0E0,0E0,0E0,0E0,1.0075191E4,1.1519078E4,0E0,0E0,0E0,0E0,0E0,0E0,0E0,0E0,0E0,0E0,0E0,0E0,0E0,0E0,0E0,0E0,0E0,0E0,0E0,0E0,0E0,0E0,0E0,0E0,0E0,0E0],"parents":[2147483647,0,0,1,1,2,2,3,3,4,4,5,5,6,6,7,7,9,9,11,11,12,12,13,13,14,14,15,15,16,16,17,17,18,18,19,19,20,20,21,21,22,22,24,24,25,25,26,26,27,27,28,28,29,29,30,30,32,32,33,33,35,35,36,36,41,41,42,42],"right_children":[2,4,6,8,10,12,14,16,-1,18,-1,20,22,24,26,28,30,32,34,36,38,40,42,-1,44,46,48,50,52,54,56,-1,58,60,-1,62,64,-1,-1,-1,-1,66,68,-1,-1,-1,-1,-1,-1,-1,-1,-1,-1,-1,-1,-1,-1,-1,-1,-1,-1,-1,-1,-1,-1,-1,-1,-1,-1],"split_conditions":[4.09E1,6.352688E8,6.5E0,1.55E1,3E0,1.6411499E2,-5.486E3,1.05E4,-4.894152E-2,2.3595001E1,1.4783683E-1,2.73505E4,9.2E1,-4.060264E6,2.5E0,9.9465E3,4.74465E4,5E-1,3.9190002E1,8.781248E6,5E-1,2.6094E2,3.8441E5,9.4795674E-2,-2.14575E4,8.5E0,-1.71E3,-2.6845E3,1.3995E1,4.13E0,1.875E5,-8.854316E-2,5.985E0,5.8229856E7,-3.3739448E-2,-9.9495E4,-1.982E3,3.562255E-1,8.146082E-2,7.256163E-1,1.0423541E-1,5E-1,2.1791501E2,2.8012216E-1,1.612854E-1,1.3978088E-1,5.823156E-2,2.3346785E-2,5.878462E-3,-1.3837056E-2,-2.7047266E-4,1.5552004E-1,-1.23216875E-1,1.0733256E0,3.317984E-2,4.0328354E-2,-1.1240811E-2,-7.8311704E-2,8.072264E-2,2.7636336E-2,8.3421916E-2,2.3843902E-1,-3.794302E-3,8.827047E-3,2.0746042E-1,6.2793246E-3,6.743284E-2,4.58833E-1,1.5817733E-1],"split_indices":[0,7,5,5,6,0,1,1,0,0,0,1,2,1,6,1,1,6,0,7,10,0,2,0,1,5,1,1,0,0,1,0,0,2,0,1,1,0,0,0,0,15,0,0,0,0,0,0,0,0,0,0,0,0,0,0,0,0,0,0,0,0,0,0,0,0,0,0,0],"split_type":[0,0,0,0,0,0,0,0,0,0,0,0,0,0,0,0,0,0,0,0,0,0,0,0,0,0,0,0,0,0,0,0,0,0,0,0,0,0,0,0,0,0,0,0,0,0,0,0,0,0,0,0,0,0,0,0,0,0,0,0,0,0,0,0,0,0,0,0,0],"sum_hessian":[3.2601E4,2.0392E4,1.2209E4,1.9765E4,6.27E2,1.213E4,7.9E1,1.8965E4,8E2,6.17E2,1E1,1.0144E4,1.986E3,5.3E1,2.6E1,1.7985E4,9.8E2,5.07E2,1.1E2,1.0129E4,1.5E1,2.1E1,1.965E3,8E0,4.5E1,1.2E1,1.4E1,1.7867E4,1.18E2,1.44E2,8.36E2,3E2,2.07E2,1E1,1E2,7.363E3,2.766E3,7E0,8E0,1.1E1,1E1,1.879E3,8.6E1,3E1,1.5E1,7E0,5E0,9E0,5E0,1.3518E4,4.349E3,1.6E1,1.02E2,1.6E1,1.28E2,1.18E2,7.18E2,2.01E2,6E0,5E0,5E0,2E1,7.343E3,2.725E3,4.1E1,1.555E3,3.24E2,1.5E1,7.1E1],"tree_param":{"num_deleted":"0","num_feature":"16","num_nodes":"69","size_leaf_vector":"0"}},{"base_weights":[-6.016962E-1,-1.479657E0,4.4005427E-1,-1.2320964E0,-4.8487344E0,4.0141732E-1,7.776819E1,-1.0786158E0,-6.2679453E0,3.225154E-1,1.7644E1,-1.2452519E0,1.195336E0,6.8809175E-1,-8.29304E0,2.4183184E-1,7.997662E0,2.3135944E1,5.936564E0,-1.1742314E0,-1.1795384E1,6.682725E1,-8.164817E-1,1.5707593E1,-1.9246699E0,-7.475044E0,-9.045126E0,1.1558799E1,1.986642E-1,4.8836255E0,5.5599903E1,9.685652E0,2.528792E1,2.050851E0,1.1743535E1,-1.7778318E0,-6.842769E-1,-1.2636777E1,3.8350203E0,3.1264456E1,1.7903557E2,4.7346714E-1,-3.1426075E0,7.939781E0,2.0333887E1,1.9745636E1,8.454114E0,-9.942918E-2,1.5158848E0,1.7235966E1,1.1405491E-1,2.8738256E1,1.6304491E1,2.767733E0,1.0914292E0],"categories":[],"categories_nodes":[],"categories_segments":[],"categories_sizes":[],"default_left":[1,1,1,1,0,1,0,1,1,1,1,1,1,1,1,1,1,1,1,1,1,1,1,1,0,0,0,1,1,1,0,0,1,1,0,0,0,0,0,0,0,0,0,0,0,0,0,0,0,0,0,0,0,0,0],"id":19,"left_children":[1,3,5,7,-1,9,-1,11,13,15,17,19,21,23,25,27,29,31,33,35,37,39,41,43,-1,-1,-1,45,47,49,-1,-1,51,53,-1,-1,-1,-1,-1,-1,-1,-1,-1,-1,-1,-1,-1,-1,-1,-1,-1,-1,-1,-1,-1],"loss_changes":[3.2075977E4,1.5860875E4,4.786067E4,1.3690867E4,0E0,2.180244E4,0E0,6.5238535E3,7.3928105E3,9.881348E3,4.418955E3,1.1986918E4,1.5538752E5,4.7695493E3,1.14546875E2,7.713639E3,2.406397E4,9.2843164E2,5.385012E2,4.7086543E3,1.5041152E3,1.2847053E5,3.4326426E3,3.23958E2,0E0,0E0,0E0,1.191189E3,6.1810796E3,9.304694E3,0E0,0E0,3.3370508E2,6.3386917E0,0E0,0E0,0E0,0E0,0E0,0E0,0E0,0E0,0E0,0E0,0E0,0E0,0E0,0E0,0E0,0E0,0E0,0E0,0E0,0E0,0E0],"parents":[2147483647,0,0,1,1,2,2,3,3,5,5,7,7,8,8,9,9,10,10,11,11,12,12,13,13,14,14,15,15,16,16,17,17,18,18,19,19,20,20,21,21,22,22,23,23,27,27,28,28,29,29,32,32,33,33],"right_children":[2,4,6,8,-1,10,-1,12,14,16,18,20,22,24,26,28,30,32,34,36,38,40,42,44,-1,-1,-1,46,48,50,-1,-1,52,54,-1,-1,-1,-1,-1,-1,-1,-1,-1,-1,-1,-1,-1,-1,-1,-1,-1,-1,-1,-1,-1],"split_conditions":[3.2004997E1,1.55E1,3.1E5,4.5733037E8,-4.8487343E-2,6.5E0,7.776819E-1,1.05E4,4.505625E1,1.4867471E9,-5.0955E3,1.43505E5,2.95E4,8.7436616E7,1.9296016E2,-5.5337013E1,5E-1,-6.303393E1,1.79125E2,1.4264999E1,1.5205E1,2.475E4,1.0426875E6,5.748383E7,-1.9246697E-2,-7.475044E-2,-9.0451255E-2,-7.163936E1,1.3518E2,1.1373618E8,5.5599904E-1,9.685651E-2,-2.9500898E6,6.9715E1,1.1743535E-1,-1.7778318E-2,-6.8427688E-3,-1.2636776E-1,3.8350202E-2,3.1264454E-1,1.7903557E0,4.734671E-3,-3.1426072E-2,7.939781E-2,2.0333886E-1,1.9745636E-1,8.4541135E-2,-9.942919E-4,1.5158847E-2,1.7235966E-1,1.1405491E-3,2.8738257E-1,1.630449E-1,2.7677331E-2,1.0914292E-2],"split_indices":[0,5,1,7,0,5,0,1,8,7,1,4,1,2,8,8,11,8,0,0,0,1,1,2,0,0,0,8,0,2,0,0,4,0,0,0,0,0,0,0,0,0,0,0,0,0,0,0,0,0,0,0,0,0,0],"split_type":[0,0,0,0,0,0,0,0,0,0,0,0,0,0,0,0,0,0,0,0,0,0,0,0,0,0,0,0,0,0,0,0,0,0,0,0,0,0,0,0,0,0,0,0,0,0,0,0,0,0,0,0,0,0,0],"sum_hessian":[3.5067E4,1.9029E4,1.6038E4,1.7729E4,1.3E3,1.6032E4,6E0,1.7207E4,5.22E2,1.5961E4,7.1E1,1.6033E4,1.174E3,1.18E2,4.04E2,1.5797E4,1.64E2,4.7E1,2.4E1,1.5928E4,1.05E2,3.3E1,1.141E3,1.6E1,1.02E2,2.04E2,2E2,5.8E1,1.5739E4,1.56E2,8E0,8E0,3.9E1,1.6E1,8E0,7.134E3,8.794E3,1E2,5E0,2.7E1,6E0,7.35E2,4.06E2,8E0,8E0,1.3E1,4.5E1,1.2836E4,2.903E3,4.2E1,1.14E2,2.5E1,1.4E1,7E0,9E0],"tree_param":{"num_deleted":"0","num_feature":"16","num_nodes":"55","size_leaf_vector":"0"}},{"base_weights":[-7.0855427E-1,-1.5987712E0,2.601168E-1,-1.4192849E0,-5.3300886E0,1.8540026E-1,1.8415174E1,-1.2325579E0,-4.7968917E0,-6.0193425E-1,-8.3365345E0,-3.3133098E-1,1.5589612E0,2.2767843E1,6.5051208E0,-1.4230239E0,1.763617E0,-1.2807093E0,1.1806615E1,-7.481111E0,-8.86026E0,-3.6337227E-1,2.5345875E1,1.2245125E0,1.9626028E1,8.730081E0,2.3966223E1,1.0737006E1,1.5417058E0,-1.3582643E0,-1.0292792E1,5.644681E1,1.2526108E0,-1.4948236E0,7.149049E0,1.5002996E1,-4.056785E-1,3.5036907E1,8.106994E0,1.0960002E1,8.9300364E-1,1.344731E1,2.9990768E1,2.7270218E1,1.6163757E1,2.0644467E0,5.784776E-1,-1.9882581E0,-7.852672E-1,-1.2512887E1,1.2164959E1,-5.0522006E-1,1.1768927E1,-2.2336445E0,-1.6848287E-2,2.2239704E1,8.749667E0,1.0178573E1,-4.3220192E-1,2.4208589E0,4.005338E1,2.2100042E1,7.4348474E-1,1.0808709E1,2.1100845E1,5.9440647E1,1.5216658E1],"categories":[],"categories_nodes":[],"categories_segments":[],"categories_sizes":[],"default_left":[1,1,1,1,1,1,1,1,0,1,1,1,1,1,1,1,1,1,0,0,0,1,1,1,1,0,1,0,1,1,1,0,1,1,0,1,1,0,0,1,1,1,1,0,0,0,0,0,0,0,0,0,0,0,0,0,0,0,0,0,0,0,0,0,0,0,0],"id":20,"left_children":[1,3,5,7,9,11,13,15,-1,17,19,21,23,25,27,29,31,33,-1,-1,-1,35,37,39,41,-1,43,-1,45,47,49,-1,51,53,-1,55,57,-1,-1,59,61,63,65,-1,-1,-1,-1,-1,-1,-1,-1,-1,-1,-1,-1,-1,-1,-1,-1,-1,-1,-1,-1,-1,-1,-1,-1],"loss_changes":[2.9881338E4,1.2078008E4,2.250536E4,1.0855605E4,1.1759936E4,1.1733396E4,3.2289395E3,9.324627E3,0E0,2.7591682E3,9.4125E1,9.901884E3,2.725802E4,4.0585156E2,4.079901E2,8.792572E3,2.7159338E4,5.7909717E2,0E0,0E0,0E0,7.813293E3,1.9378506E3,1.4306858E4,4.444756E3,0E0,2.5271094E2,0E0,3.6537514E0,5.5008105E3,5.838713E3,0E0,1.794322E4,3.3078827E2,0E0,1.1041855E3,3.3688623E3,0E0,0E0,3.6077223E4,1.3585952E4,6.545586E2,1.0808803E4,0E0,0E0,0E0,0E0,0E0,0E0,0E0,0E0,0E0,0E0,0E0,0E0,0E0,0E0,0E0,0E0,0E0,0E0,0E0,0E0,0E0,0E0,0E0,0E0],"parents":[2147483647,0,0,1,1,2,2,3,3,4,4,5,5,6,6,7,7,9,9,10,10,11,11,12,12,13,13,14,14,15,15,16,16,17,17,21,21,22,22,23,23,24,24,26,26,28,28,29,29,30,30,32,32,33,33,35,35,36,36,39,39,40,40,41,41,42,42],"right_children":[2,4,6,8,10,12,14,16,-1,18,20,22,24,26,28,30,32,34,-1,-1,-1,36,38,40,42,-1,44,-1,46,48,50,-1,52,54,-1,56,58,-1,-1,60,62,64,66,-1,-1,-1,-1,-1,-1,-1,-1,-1,-1,-1,-1,-1,-1,-1,-1,-1,-1,-1,-1,-1,-1,-1,-1],"split_conditions":[3.206E1,4.5733037E8,6.5E0,1.55E1,4.505625E1,1.00825E2,-4.228E3,1.56095E4,-4.7968917E-2,1.3905001E1,1.637585E2,1.3095542E6,1.478944E6,-6.303393E1,2E0,1.402914E5,6.0725E4,-3.2417168E1,1.1806615E-1,-7.481111E-2,-8.8602595E-2,3.3015E1,5E-1,1.394E3,-4.450658E6,8.730081E-2,-2.5080542E6,1.07370056E-1,-6.265458E0,1.426E1,1.5205E5,5.644681E-1,2.6194252E1,8.61E0,7.149049E-2,-3.8308E4,-6.159729E1,3.5036907E-1,8.106993E-2,1.6741E2,1.05435E2,-6.819086E-2,-1.5949E4,2.727022E-1,1.6163757E-1,2.0644467E-2,5.784776E-3,-1.988258E-2,-7.852672E-3,-1.2512887E-1,1.21649586E-1,-5.0522005E-3,1.1768927E-1,-2.2336444E-2,-1.6848286E-4,2.2239703E-1,8.749667E-2,1.0178573E-1,-4.322019E-3,2.4208589E-2,4.005338E-1,2.2100042E-1,7.4348473E-3,1.0808709E-1,2.1100844E-1,5.944065E-1,1.5216658E-1],"split_indices":[0,7,5,5,8,0,1,1,0,0,8,4,2,8,6,4,2,8,0,0,0,0,10,2,4,0,4,0,3,0,4,0,8,0,0,1,8,0,0,0,0,3,1,0,0,0,0,0,0,0,0,0,0,0,0,0,0,0,0,0,0,0,0,0,0,0,0],"split_type":[0,0,0,0,0,0,0,0,0,0,0,0,0,0,0,0,0,0,0,0,0,0,0,0,0,0,0,0,0,0,0,0,0,0,0,0,0,0,0,0,0,0,0,0,0,0,0,0,0,0,0,0,0,0,0,0,0,0,0,0,0,0,0,0,0,0,0],"sum_hessian":[3.4649E4,1.8055E4,1.6594E4,1.7229E4,8.26E2,1.6528E4,6.6E1,1.6329E4,9E2,3.22E2,5.04E2,1.2011E4,4.517E3,4.7E1,1.9E1,1.5354E4,9.75E2,3.07E2,1.5E1,2.03E2,3.01E2,1.1998E4,1.3E1,4.437E3,8E1,5E0,4.2E1,9E0,1E1,1.5245E4,1.09E2,7E0,9.68E2,3.01E2,6E0,3.1E1,1.1967E4,7E0,6E0,1.44E2,4.293E3,5.3E1,2.7E1,2.6E1,1.6E1,5E0,5E0,7.259E3,7.986E3,1E2,9E0,8.31E2,1.37E2,2E2,1.01E2,1.2E1,1.9E1,2.8E1,1.1939E4,1.13E2,3.1E1,2.8E1,4.265E3,4.3E1,1E1,7E0,2E1],"tree_param":{"num_deleted":"0","num_feature":"16","num_nodes":"67","size_leaf_vector":"0"}},{"base_weights":[-7.3591864E-1,-1.4889653E0,6.357168E-1,-1.2847626E0,-4.7528214E0,5.266664E-1,1.7717459E1,-5.79773E0,-1.1908516E0,4.9866349E-1,4.263389E1,2.358731E1,5.7604094E0,1.394943E1,-6.793026E0,3.5298307E0,-1.2783928E0,4.481265E-1,1.5671465E1,8.262324E0,2.4893839E1,1.0816156E1,1.7498662E0,1.8816717E1,3.2782216E0,-8.588492E0,-1.4995308E0,7.087105E-1,2.8288692E1,-1.4064974E0,9.8561794E-1,-9.419446E-2,1.5569742E0,1.9095108E1,1.07553005E1,2.943755E1,1.6681086E1,2.230053E0,3.581293E-1,2.334918E1,9.580074E0,1.7404385E1,-1.7082306E-2,7.259484E1,1.3600539E1,-2.2436676E0,-8.8726294E-1,-4.401282E-1,8.46783E1,1.3476769E0,-3.350691E-1,1.1122327E0,2.3326775E1,3.4004693E0,1.3946934E1,1.9133615E1,6.309278E0],"categories":[],"categories_nodes":[],"categories_segments":[],"categories_sizes":[],"default_left":[1,1,1,1,0,1,1,1,1,1,0,1,1,1,1,1,1,1,1,0,1,0,1,1,0,0,0,1,1,1,1,1,1,0,1,0,1,0,0,0,0,0,0,0,0,0,0,0,0,0,0,0,0,0,0,0,0],"id":21,"left_children":[1,3,5,7,-1,9,11,13,15,17,-1,19,21,23,25,27,29,31,33,-1,35,-1,37,39,-1,-1,-1,41,43,45,47,49,51,-1,53,-1,55,-1,-1,-1,-1,-1,-1,-1,-1,-1,-1,-1,-1,-1,-1,-1,-1,-1,-1,-1,-1],"loss_changes":[3.5400594E4,1.4733828E4,2.2610281E4,8.812191E3,0E0,1.4193054E4,5.132586E3,8.522929E3,8.440648E3,9.23878E3,0E0,6.0978516E2,5.2988245E2,9.6736597E2,3.8234805E3,2.5943258E4,5.8129453E3,7.233948E3,2.6250098E2,0E0,7.344531E2,0E0,1.0431988E1,1.3873242E2,0E0,0E0,0E0,4.0721082E3,2.2754809E4,8.238129E3,1.2822907E5,2.8071697E3,3.820142E4,0E0,3.981001E2,0E0,2.927422E2,0E0,0E0,0E0,0E0,0E0,0E0,0E0,0E0,0E0,0E0,0E0,0E0,0E0,0E0,0E0,0E0,0E0,0E0,0E0,0E0],"parents":[2147483647,0,0,1,1,2,2,3,3,5,5,6,6,7,7,8,8,9,9,11,11,12,12,13,13,14,14,15,15,16,16,17,17,18,18,20,20,22,22,23,23,27,27,28,28,29,29,30,30,31,31,32,32,34,34,36,36],"right_children":[2,4,6,8,-1,10,12,14,16,18,-1,20,22,24,26,28,30,32,34,-1,36,-1,38,40,-1,-1,-1,42,44,46,48,50,52,-1,54,-1,56,-1,-1,-1,-1,-1,-1,-1,-1,-1,-1,-1,-1,-1,-1,-1,-1,-1,-1,-1,-1],"split_conditions":[4.51E1,1.55E1,6.5E0,-3.09511E7,-4.7528215E-2,1.3702517E7,-5.625E3,-8.20432E7,-6.684346E1,1.3156947E2,4.2633888E-1,-2.8668935E6,2.5E0,4E0,1E0,-7.626775E1,1.53345E4,1.07125E2,1.9715163E2,8.262324E-2,-2.5078542E6,1.0816156E-1,-3.145E2,3.411E1,3.2782216E-2,-8.588492E-2,-1.4995308E-2,-9.119437E1,7.775E0,1.5005E1,1.501319E2,-2.8464912E1,1.480944E6,1.9095108E-1,-1.39035E4,2.9437548E-1,6.2455E1,2.2300528E-2,3.581293E-3,2.334918E-1,9.580074E-2,1.7404385E-1,-1.7082306E-4,7.259484E-1,1.3600539E-1,-2.2436675E-2,-8.872629E-3,-4.401282E-3,8.46783E-1,1.34767685E-2,-3.350691E-3,1.1122326E-2,2.3326774E-1,3.4004692E-2,1.3946934E-1,1.9133615E-1,6.3092776E-2],"split_indices":[0,5,5,4,0,4,1,4,8,8,0,1,6,5,6,8,1,0,8,0,4,0,1,0,0,0,0,8,0,0,8,8,2,0,1,0,0,0,0,0,0,0,0,0,0,0,0,0,0,0,0,0,0,0,0,0,0],"split_type":[0,0,0,0,0,0,0,0,0,0,0,0,0,0,0,0,0,0,0,0,0,0,0,0,0,0,0,0,0,0,0,0,0,0,0,0,0,0,0,0,0,0,0,0,0,0,0,0,0,0,0,0,0,0,0,0,0],"sum_hessian":[3.4269E4,2.2123E4,1.2146E4,2.0823E4,1.3E3,1.2071E4,7.5E1,4.22E2,2.0401E4,1.2065E4,6E0,4.9E1,2.6E1,1.9E1,4.03E2,3.7E2,2.0031E4,1.2027E4,3.8E1,5E0,4.4E1,1E1,1.6E1,1.2E1,7E0,3E2,1.03E2,3.34E2,3.6E1,1.8959E4,1.072E3,8.078E3,3.949E3,1.9E1,1.9E1,2.5E1,1.9E1,1.1E1,5E0,6E0,6E0,1.2E1,3.22E2,7E0,2.9E1,7.255E3,1.1704E4,1.056E3,1.6E1,1.155E3,6.923E3,3.872E3,7.7E1,7E0,1.2E1,1.4E1,5E0],"tree_param":{"num_deleted":"0","num_feature":"16","num_nodes":"57","size_leaf_vector":"0"}},{"base_weights":[-5.2855766E-1,-1.3138077E0,3.1282797E-1,-5.99258E0,-1.1456907E0,2.279333E-1,1.8719126E1,1.1121781E1,-6.451394E0,-9.039008E-1,-4.7099023E0,2.0660058E-1,5.1047466E1,2.421783E1,6.070296E0,1.3950583E1,3.094754E0,-1.3481985E0,-7.4626884E0,-2.043951E0,-5.2672243E-1,1.5370567E1,1.6742769E-1,8.205963E0,2.5543818E1,1.5546699E0,1.1079414E1,-2.884316E0,-8.615668E0,-3.9526433E-1,-2.8868105E0,-5.453533E-1,2.8040295E1,1.8724838E1,7.36963E0,-1.8808572E-1,1.5459721E0,2.856935E1,1.5921589E1,2.3667E0,3.9715755E-1,-4.6473566E-1,1.3254652E1,-3.8880868E0,-1.2719198E0,-7.2622246E-1,1.33138E0,2.212831E1,1.11315975E1,4.1421833E0,1.0335724E1,-2.1329908E-1,1.0930938E1,1.1086067E0,2.3368093E1],"categories":[],"categories_nodes":[],"categories_segments":[],"categories_sizes":[],"default_left":[1,1,1,1,1,1,1,1,1,1,0,1,0,1,1,0,0,0,1,1,1,1,1,0,1,1,0,0,0,1,1,1,0,1,1,1,1,0,0,0,0,0,0,0,0,0,0,0,0,0,0,0,0,0,0],"id":22,"left_children":[1,3,5,7,9,11,13,15,17,19,-1,21,-1,23,25,-1,-1,-1,27,29,31,33,35,-1,37,39,-1,-1,-1,41,43,45,-1,47,49,51,53,-1,-1,-1,-1,-1,-1,-1,-1,-1,-1,-1,-1,-1,-1,-1,-1,-1,-1],"loss_changes":[2.2960082E4,1.4125064E4,2.6207145E4,5.035492E3,1.4946994E4,1.808587E4,5.0615E3,2.9966943E2,3.117664E3,6.9871016E3,0E0,9.913146E3,0E0,7.060488E2,5.536523E2,0E0,0E0,0E0,2.6266348E3,5.61175E3,6.5322783E3,8.7801465E2,8.163538E3,0E0,4.8765234E2,1.315905E1,0E0,0E0,0E0,1.3105122E3,4.3122188E3,4.146535E3,0E0,2.5681152E2,6.7541626E1,3.7173108E3,3.2541768E4,0E0,0E0,0E0,0E0,0E0,0E0,0E0,0E0,0E0,0E0,0E0,0E0,0E0,0E0,0E0,0E0,0E0,0E0],"parents":[2147483647,0,0,1,1,2,2,3,3,4,4,5,5,6,6,7,7,8,8,9,9,11,11,13,13,14,14,18,18,19,19,20,20,21,21,22,22,24,24,25,25,29,29,30,30,31,31,33,33,34,34,35,35,36,36],"right_children":[2,4,6,8,10,12,14,16,18,20,-1,22,-1,24,26,-1,-1,-1,28,30,32,34,36,-1,38,40,-1,-1,-1,42,44,46,-1,48,50,52,54,-1,-1,-1,-1,-1,-1,-1,-1,-1,-1,-1,-1,-1,-1,-1,-1,-1,-1],"split_conditions":[3.2065002E1,-1.2249065E6,6.5E0,-3.3946645E6,1.55E1,1.3390938E7,-4.228E3,5.5E0,5E-1,-7.67359E5,-4.709902E-2,3.3254997E1,5.104746E-1,-4.060264E6,1.7906999E2,1.3950583E-1,3.094754E-2,-1.3481985E-2,8.1449995E0,-2.1467685E6,2.995E2,-5.0045E3,1.39155E2,8.205963E-2,-2.17785E4,-3.145E2,1.1079414E-1,-2.8843159E-2,-8.615668E-2,9E0,5E-1,1.53345E4,2.8040293E-1,3.2765E1,-3.98E2,2.4629375E5,3.5E0,2.856935E-1,1.5921588E-1,2.3666998E-2,3.9715753E-3,-4.6473565E-3,1.3254651E-1,-3.8880866E-2,-1.2719198E-2,-7.2622243E-3,1.33138E-2,2.212831E-1,1.1131597E-1,4.142183E-2,1.0335723E-1,-2.1329909E-3,1.09309375E-1,1.1086066E-2,2.3368093E-1],"split_indices":[0,1,5,1,5,4,1,5,12,4,0,0,0,1,0,0,0,0,0,4,6,1,0,0,1,1,0,0,0,5,10,1,0,0,1,4,5,0,0,0,0,0,0,0,0,0,0,0,0,0,0,0,0,0,0],"split_type":[0,0,0,0,0,0,0,0,0,0,0,0,0,0,0,0,0,0,0,0,0,0,0,0,0,0,0,0,0,0,0,0,0,0,0,0,0,0,0,0,0,0,0,0,0,0,0,0,0,0,0,0,0,0,0],"sum_hessian":[3.4748E4,1.7973E4,1.6775E4,6.21E2,1.7352E4,1.67E4,7.5E1,1.5E1,6.06E2,1.6252E4,1.1E3,1.6695E4,5E0,5.1E1,2.4E1,1E1,5E0,1.01E2,5.05E2,4.038E3,1.2214E4,4.1E1,1.6654E4,5E0,4.6E1,1.4E1,1E1,1.03E2,4.02E2,1.367E3,2.671E3,1.2208E4,6E0,2.7E1,1.4E1,1.3241E4,3.413E3,3.2E1,1.4E1,7E0,7E0,1.362E3,5E0,1.647E3,1.024E3,1.1136E4,1.072E3,1.6E1,1.1E1,9E0,5E0,1.3213E4,2.8E1,3.348E3,6.5E1],"tree_param":{"num_deleted":"0","num_feature":"16","num_nodes":"55","size_leaf_vector":"0"}},{"base_weights":[-5.4575837E-1,-3.4659672E-1,-4.6554904E0,-3.836821E-1,1.2396748E1,2.2473953E0,-4.8037294E-1,2.0030487E1,6.2287016E0,1.362893E0,1.8550514E1,-7.622861E-1,1.13048546E-1,8.55611E0,2.1467543E1,2.8457139E0,1.3654884E1,1.9614944E1,8.720856E-1,4.4025887E1,1.4633631E1,-6.9020087E-1,-8.377223E0,9.550203E0,-5.9547607E-2,2.3456913E1,8.640518E0,1.2048218E0,4.293723E0,5.415333E0,2.651839E1,-2.4738276E0,1.6486667E0,1.6115057E1,4.7442007E0,-7.0465434E-1,1.9971062E1,6.2472463E0,5.203567E1,4.9447215E-1,-1.4341117E0,1.4528416E0,4.0757686E-1,2.0732532E0,5.341204E0],"categories":[],"categories_nodes":[],"categories_segments":[],"categories_sizes":[],"default_left":[1,1,0,1,1,1,1,1,1,1,1,1,1,0,1,1,0,1,1,0,1,1,0,1,1,0,0,1,1,0,0,0,0,0,0,0,0,0,0,0,0,0,0,0,0],"id":23,"left_children":[1,3,-1,5,7,9,11,13,15,17,19,21,23,-1,25,27,-1,29,31,-1,33,35,-1,37,39,-1,-1,41,43,-1,-1,-1,-1,-1,-1,-1,-1,-1,-1,-1,-1,-1,-1,-1,-1],"loss_changes":[2.8368475E4,1.5634814E4,0E0,8.389509E3,4.2706562E3,1.6806586E4,5.320435E3,3.251953E2,1.3291545E3,9.918396E3,4.6985273E3,1.1823256E4,1.6686734E4,0E0,5.1327734E2,8.707077E1,0E0,2.5555498E3,2.8247937E3,0E0,6.5286914E2,6.406823E3,0E0,2.5170129E4,7.6639897E3,0E0,0E0,3.1658268E0,2.6696564E1,0E0,0E0,0E0,0E0,0E0,0E0,0E0,0E0,0E0,0E0,0E0,0E0,0E0,0E0,0E0,0E0],"parents":[2147483647,0,0,1,1,3,3,4,4,5,5,6,6,7,7,8,8,9,9,10,10,11,11,12,12,14,14,15,15,17,17,18,18,20,20,21,21,23,23,24,24,27,27,28,28],"right_children":[2,4,-1,6,8,10,12,14,16,18,20,22,24,-1,26,28,-1,30,32,-1,34,36,-1,38,40,-1,-1,42,44,-1,-1,-1,-1,-1,-1,-1,-1,-1,-1,-1,-1,-1,-1,-1,-1],"split_conditions":[1.55E1,8.5E0,-4.6554904E-2,2.157E3,-5.22977E5,1.465E2,-1.4043833E0,-3.0092966E8,9.5E0,-2.762E6,-6.684029E1,1.650603E3,-3.3822188E6,8.5561104E-2,-9.617487E0,5E-1,1.3654885E-1,-1.899175E7,-6.7982574E1,4.4025886E-1,1.20677724E-1,4.5614708E7,-8.377223E-2,-4.381558E6,6.2093565E6,2.3456912E-1,8.640518E-2,-2.3250368E0,3.0521E4,5.4153327E-2,2.651839E-1,-2.4738276E-2,1.6486667E-2,1.6115056E-1,4.7442008E-2,-7.046543E-3,1.9971061E-1,6.2472463E-2,5.203567E-1,4.9447212E-3,-1.4341117E-2,1.4528416E-2,4.0757684E-3,2.0732531E-2,5.341204E-2],"split_indices":[5,5,0,2,4,2,3,4,5,4,8,8,4,0,3,11,0,4,8,0,3,2,0,4,2,0,0,3,2,0,0,0,0,0,0,0,0,0,0,0,0,0,0,0,0],"split_type":[0,0,0,0,0,0,0,0,0,0,0,0,0,0,0,0,0,0,0,0,0,0,0,0,0,0,0,0,0,0,0,0,0,0,0,0,0,0,0,0,0,0,0,0,0],"sum_hessian":[3.4661E4,3.3061E4,1.6E3,3.2967E4,9.4E1,1.167E3,3.18E4,4E1,5.4E1,1.109E3,5.8E1,2.1558E4,1.0242E4,6E0,3.4E1,3.9E1,1.5E1,2.7E1,1.082E3,5E0,5.3E1,2.1358E4,2E2,1.82E2,1.006E4,2.8E1,6E0,2E1,1.9E1,1E1,1.7E1,2.03E2,8.79E2,4.5E1,8E0,2.1345E4,1.3E1,1.71E2,1.1E1,7.171E3,2.889E3,1.4E1,6E0,8E0,1.1E1],"tree_param":{"num_deleted":"0","num_feature":"16","num_nodes":"45","size_leaf_vector":"0"}},{"base_weights":[-5.4948145E-1,-3.7840363E-1,-4.6050243E0,-4.0479222E-1,1.7513971E1,-4.583111E-1,6.9478383E0,2.2201422E1,6.0786047E0,2.345241E-1,-8.888211E-1,1.5700886E1,-2.1055582E-1,1.6240582E1,3.325932E1,-1.07950546E-1,1.7480578E0,-8.084643E-1,-6.2117667E0,2.0222208E1,6.3078074E0,4.659436E0,-1.1980665E0,9.535223E0,2.1478983E1,1.8664562E0,-2.7590933E-1,2.8303381E1,1.4472626E0,1.58337E1,-8.275162E-1,-8.175572E0,-5.1586394E0,2.4404385E1,1.5869618E1,3.501467E0,1.1804634E1,6.635996E0,1.2966446E0,-1.4940209E0,1.3083559E0],"categories":[],"categories_nodes":[],"categories_segments":[],"categories_sizes":[],"default_left":[1,1,0,1,1,1,1,1,0,1,1,1,1,1,0,1,1,1,1,1,1,1,1,0,0,0,0,0,0,0,0,0,0,0,0,0,0,0,0,0,0],"id":24,"left_children":[1,3,-1,5,7,9,11,13,-1,15,17,19,21,23,-1,25,27,29,31,33,35,37,39,-1,-1,-1,-1,-1,-1,-1,-1,-1,-1,-1,-1,-1,-1,-1,-1,-1,-1],"loss_changes":[2.4031607E4,1.5709547E4,0E0,1.3068752E4,2.356625E3,9.830585E3,1.5044476E4,1.1607871E3,0E0,6.5481353E3,8.68453E3,4.3315527E3,6.555932E2,5.0364502E2,0E0,3.4177002E3,1.8537438E4,6.376073E3,5.4022656E2,5.360586E2,5.0351965E2,1.3566635E2,8.773135E1,0E0,0E0,0E0,0E0,0E0,0E0,0E0,0E0,0E0,0E0,0E0,0E0,0E0,0E0,0E0,0E0,0E0,0E0],"parents":[2147483647,0,0,1,1,3,3,4,4,5,5,6,6,7,7,9,9,10,10,11,11,12,12,13,13,15,15,16,16,17,17,18,18,19,19,20,20,21,21,22,22],"right_children":[2,4,-1,6,8,10,12,14,-1,16,18,20,22,24,-1,26,28,30,32,34,36,38,40,-1,-1,-1,-1,-1,-1,-1,-1,-1,-1,-1,-1,-1,-1,-1,-1,-1,-1],"split_conditions":[1.55E1,4.0431603E9,-4.6050243E-2,6.5E0,1.1383218E8,5E-1,6.666063E0,-4.282978E6,6.0786046E-2,4.0919693E1,1.4132502E3,-5.087E3,2.5E0,5.1475376E7,3.3259317E-1,2.169E3,-2.8927695E6,-3.129208E6,-1.6527085E6,-2.58815E6,9.5E0,-1.9244903E5,-3.47395E4,9.5352225E-2,2.1478982E-1,1.8664561E-2,-2.7590932E-3,2.8303382E-1,1.4472626E-2,1.58337E-1,-8.2751615E-3,-8.175572E-2,-5.1586393E-2,2.4404384E-1,1.5869617E-1,3.501467E-2,1.18046336E-1,6.635996E-2,1.2966446E-2,-1.4940209E-2,1.30835585E-2],"split_indices":[5,7,0,5,2,14,8,4,0,8,8,1,6,2,0,2,4,1,1,4,5,4,1,0,0,0,0,0,0,0,0,0,0,0,0,0,0,0,0,0,0],"split_type":[0,0,0,0,0,0,0,0,0,0,0,0,0,0,0,0,0,0,0,0,0,0,0,0,0,0,0,0,0,0,0,0,0,0,0,0,0,0,0,0,0],"sum_hessian":[3.464E4,3.324E4,1.4E3,3.3193E4,4.7E1,3.2955E4,2.38E2,3.2E1,1.5E1,1.263E4,2.0325E4,1.06E2,1.32E2,2.4E1,8E0,1.0301E4,2.329E3,2.0025E4,3E2,7E1,3.6E1,2.1E1,1.11E2,1.3E1,1.1E1,8.06E2,9.495E3,2.4E1,2.305E3,2.1E1,2.0004E4,1E2,2E2,3.1E1,3.9E1,2.6E1,1E1,1.2E1,9E0,1E2,1.1E1],"tree_param":{"num_deleted":"0","num_feature":"16","num_nodes":"41","size_leaf_vector":"0"}},{"base_weights":[-6.3572013E-1,-5.478514E-1,-5.581714E0,1.4802249E1,-5.6610197E-1,1.0137314E0,-7.0149765E0,2.816685E1,1.1381229E1,-5.2668583E-1,-6.891983E0,-1.7173907E-2,1.1429309E1,-8.273138E0,-5.074116E0,7.39918E0,1.4541147E1,-5.3634775E-1,2.315192E1,-7.431314E0,6.984256E0,1.7590101E1,6.3324285E0,2.1858976E0,-6.2041634E-1,2.2607407E1,1.3106943E0,-5.0517064E-1,-2.0131044E0],"categories":[],"categories_nodes":[],"categories_segments":[],"categories_sizes":[],"default_left":[1,1,1,1,1,1,1,0,1,1,1,0,0,0,0,0,1,1,0,0,0,0,0,1,1,0,0,0,0],"id":25,"left_children":[1,3,5,7,9,11,13,-1,15,17,19,-1,-1,-1,-1,-1,21,23,-1,-1,-1,-1,-1,25,27,-1,-1,-1,-1],"loss_changes":[1.5236545E4,9.671513E3,5.799461E3,1.2333965E3,8.576087E3,1.1922522E3,1.1443281E3,0E0,2.3780127E2,7.8521084E3,1.6978721E3,0E0,0E0,0E0,0E0,0E0,2.2772803E2,7.829795E3,0E0,0E0,0E0,0E0,0E0,1.8260531E4,5.323079E3,0E0,0E0,0E0,0E0],"parents":[2147483647,0,0,1,1,2,2,3,3,4,4,5,5,6,6,8,8,9,9,10,10,16,16,17,17,23,23,24,24],"right_children":[2,4,6,8,10,12,14,-1,16,18,20,-1,-1,-1,-1,-1,22,24,-1,-1,-1,-1,-1,26,28,-1,-1,-1,-1],"split_conditions":[1.4144998E3,-3.07147E6,5E-1,-1.4774998E7,1.229972E8,5E-1,-6.797815E5,2.8166848E-1,-2.1400741E8,3.005E2,2.042423E8,-1.7173907E-4,1.1429308E-1,-8.273138E-2,-5.0741162E-2,7.39918E-2,2.6867676E7,8.7E2,2.3151919E-1,-7.431314E-2,6.9842555E-2,1.7590101E-1,6.332428E-2,-2.49777E1,1.31146E2,2.2607405E-1,1.3106943E-2,-5.0517065E-3,-2.0131044E-2],"split_indices":[8,1,14,1,2,6,1,0,4,6,2,0,0,0,0,0,2,2,0,0,0,0,0,8,8,0,0,0,0],"split_type":[0,0,0,0,0,0,0,0,0,0,0,0,0,0,0,0,0,0,0,0,0,0,0,0,0,0,0,0,0],"sum_hessian":[3.5071E4,3.4461E4,6.1E2,3.9E1,3.4422E4,1.09E2,5.01E2,5E0,3.4E1,3.4211E4,2.11E2,1.01E2,8E0,3E2,2.01E2,1.8E1,1.6E1,3.4199E4,1.2E1,2.04E2,7E0,1E1,6E0,1.023E3,3.3176E4,4E1,9.83E2,3.0643E4,2.533E3],"tree_param":{"num_deleted":"0","num_feature":"16","num_nodes":"29","size_leaf_vector":"0"}},{"base_weights":[-6.2913424E-1,-1.5396545E0,3.9721653E-1,-3.7574965E-1,-2.2313268E0,3.2234204E-1,1.8865118E1,1.5925372E-1,-2.211944E0,-1.5231112E0,-3.6975691E0,2.4788557E-1,1.77696E1,1.3633079E1,3.4855957E1,-2.0516111E-1,7.7218533E0,-2.3470626E0,2.644744E1,-1.3324422E0,-5.8449574E0,-9.775565E0,-3.3253868E0,2.2757041E-1,4.4391552E1,2.1830687E1,7.847414E0,9.846254E0,2.1964018E1,5.361916E1,1.2516586E1,3.415212E-1,-2.4035308E0,1.1597202E0,2.1644131E2,-6.0626376E-1,-4.081404E0,-1.2200515E0,-5.056842E0,-7.8160286E0,-1.8093641E0,-2.84336E0,-8.130069E0,1.4262941E1,1.7205368E-1,7.85641E0,2.318465E1,1.2290954E1,1.1691554E0,1.2766801E1,7.0787024E0,8.685824E-2,3.7545017E1,-2.6633117E0,1.4161914E1,1.7411305E-1,1.720591E1,1.5917813E1,-7.647901E-1,-9.159589E0,-1.9273094E0,1.9592884E-1,-1.5159227E0,-2.5893652E0,-7.4977374E0,-8.99422E0,-6.5467987E0,-1.8695549E0,-4.547219E0,1.9930561E1,8.756492E0,-2.2667961E-1,1.1348566E0,2.6033747E1,1.4964993E1],"categories":[],"categories_nodes":[],"categories_segments":[],"categories_sizes":[],"default_left":[1,1,1,1,1,1,1,1,1,1,1,1,1,1,1,1,1,1,0,1,1,0,1,1,0,1,1,1,0,0,0,1,1,1,0,1,1,1,1,1,0,1,0,1,1,0,1,0,0,0,0,0,0,0,0,0,0,0,0,0,0,0,0,0,0,0,0,0,0,0,0,0,0,0,0],"id":26,"left_children":[1,3,5,7,9,11,13,15,17,19,21,23,25,27,29,31,33,35,-1,37,39,-1,41,43,-1,45,47,49,-1,-1,-1,51,53,55,-1,57,59,61,63,65,-1,67,-1,69,71,-1,73,-1,-1,-1,-1,-1,-1,-1,-1,-1,-1,-1,-1,-1,-1,-1,-1,-1,-1,-1,-1,-1,-1,-1,-1,-1,-1,-1,-1],"loss_changes":[3.0538309E4,1.3938406E4,2.1231408E4,6.343869E3,1.1266973E4,1.9870725E4,4.236824E3,1.3788297E4,5.7662446E3,6.0221797E3,7.9338516E3,1.364681E4,2.276537E3,1.1448633E3,4.525957E3,5.739082E3,3.145163E5,4.378843E3,0E0,2.9261455E3,2.4296377E3,0E0,7.677578E3,1.186617E4,0E0,4.8713477E2,6.241122E2,1.2640039E2,0E0,0E0,0E0,3.6232875E4,4.1679575E3,3.5524373E3,0E0,1.928725E3,7.9172676E3,2.8565596E3,1.1958564E3,1.9178027E2,0E0,5.01709E3,0E0,1.5234648E3,5.826989E3,0E0,1.5755469E2,0E0,0E0,0E0,0E0,0E0,0E0,0E0,0E0,0E0,0E0,0E0,0E0,0E0,0E0,0E0,0E0,0E0,0E0,0E0,0E0,0E0,0E0,0E0,0E0,0E0,0E0,0E0,0E0],"parents":[2147483647,0,0,1,1,2,2,3,3,4,4,5,5,6,6,7,7,8,8,9,9,10,10,11,11,12,12,13,13,14,14,15,15,16,16,17,17,19,19,20,20,22,22,23,23,25,25,26,26,27,27,31,31,32,32,33,33,35,35,36,36,37,37,38,38,39,39,41,41,43,43,44,44,46,46],"right_children":[2,4,6,8,10,12,14,16,18,20,22,24,26,28,30,32,34,36,-1,38,40,-1,42,44,-1,46,48,50,-1,-1,-1,52,54,56,-1,58,60,62,64,66,-1,68,-1,70,72,-1,74,-1,-1,-1,-1,-1,-1,-1,-1,-1,-1,-1,-1,-1,-1,-1,-1,-1,-1,-1,-1,-1,-1,-1,-1,-1,-1,-1,-1],"split_conditions":[3.1810001E1,5E-1,2.3137946E9,1.466766E1,2.5E0,6.5E0,-4.3395955E6,4.5273447E0,2.180842E2,4.3626554E8,3.455E0,9.374023E6,-4.2301956E5,-6.749934E-2,2.8903492E7,2.4550295E6,5E-1,2.5E0,2.644744E-1,-1.7895898E-2,3E0,-9.775565E-2,1.3706847E9,3.3269997E1,4.4391552E-1,-3.522197E8,2.5E0,2.661506E7,2.1964018E-1,5.361916E-1,1.2516586E-1,9.019702E4,2.0731666E7,7.9494762E0,2.1644132E0,2.955E0,4.64305E4,6.935E0,1.0801021E8,4.680503E8,-1.809364E-2,1.55E1,-8.130068E-2,-1.264921E6,1.00825E2,7.85641E-2,-2.5080542E6,1.2290953E-1,1.16915535E-2,1.2766801E-1,7.078702E-2,8.685824E-4,3.7545016E-1,-2.6633117E-2,1.4161913E-1,1.7411305E-3,1.7205909E-1,1.5917812E-1,-7.647901E-3,-9.159589E-2,-1.9273093E-2,1.9592883E-3,-1.5159226E-2,-2.5893651E-2,-7.4977376E-2,-8.9942195E-2,-6.546798E-2,-1.8695548E-2,-4.5472186E-2,1.9930561E-1,8.7564915E-2,-2.266796E-3,1.1348565E-2,2.6033747E-1,1.4964992E-1],"split_indices":[0,14,7,3,5,5,4,3,3,7,0,4,4,3,2,2,12,6,0,3,6,0,7,0,0,4,6,2,0,0,0,4,2,3,0,0,2,0,2,7,0,5,0,4,0,0,4,0,0,0,0,0,0,0,0,0,0,0,0,0,0,0,0,0,0,0,0,0,0,0,0,0,0,0,0],"split_type":[0,0,0,0,0,0,0,0,0,0,0,0,0,0,0,0,0,0,0,0,0,0,0,0,0,0,0,0,0,0,0,0,0,0,0,0,0,0,0,0,0,0,0,0,0,0,0,0,0,0,0,0,0,0,0,0,0,0,0,0,0,0,0,0,0,0,0,0,0,0,0,0,0,0,0],"sum_hessian":[3.2675E4,1.7314E4,1.5361E4,6.455E3,1.0859E4,1.5301E4,6E1,5E3,1.455E3,7.325E3,3.534E3,1.5238E4,6.3E1,4.8E1,1.2E1,4.772E3,2.28E2,1.45E3,5E0,7.018E3,3.07E2,2.01E2,3.333E3,1.5233E4,5E0,4.3E1,2E1,3.6E1,1.2E1,5E0,7E0,3.823E3,9.49E2,2.23E2,5E0,7.25E2,7.25E2,6.815E3,2.03E2,2.05E2,1.02E2,3.032E3,3.01E2,5.8E1,1.5175E4,5E0,3.8E1,1.1E1,9E0,1.4E1,2.2E1,3.799E3,2.4E1,9.36E2,1.3E1,2.12E2,1.1E1,5E0,7.2E2,2.14E2,5.11E2,1.178E3,5.637E3,1.03E2,1E2,1E2,1.05E2,1.932E3,1.1E3,2.6E1,3.2E1,1.0732E4,4.443E3,2.5E1,1.3E1],"tree_param":{"num_deleted":"0","num_feature":"16","num_nodes":"75","size_leaf_vector":"0"}},{"base_weights":[-5.896857E-1,-8.724356E-1,2.832259E0,-7.24858E-1,-4.528503E0,4.9513004E1,2.4258676E0,-4.961887E-1,-2.9209182E0,6.8193214E1,7.376434E0,1.7343588E0,2.3932522E1,-5.1519275E-1,1.5541599E1,-8.20071E0,-2.0297472E0,9.747473E0,9.546659E1,1.3703482E0,1.6525965E1,4.240164E1,1.5783301E1,-6.7247206E-1,6.5434086E-1,1.6834343E1,8.496957E0,-1.2270596E1,-1.5750091E0,6.370536E-1,4.691688E0,9.244059E0,2.294887E1,2.1559704E1,6.518422E1,1.7948141E1,7.184344E0,-5.720565E-1,-5.131578E0,1.807991E1,4.6667397E-1,1.845031E1,7.4074802E0,-2.6407201E0,2.66967E-1,1.2276278E1,4.9329564E-1,2.5196533E0,2.059265E1,5.2156725E0,1.157393E1,1.2496011E1,3.654549E1,1.0137137E1,2.6922052E1,1.0229599E1,2.2336086E1,2.896591E0,9.3991585E0],"categories":[],"categories_nodes":[],"categories_segments":[],"categories_sizes":[],"default_left":[1,1,1,1,0,1,1,1,1,1,0,1,1,1,1,0,1,0,0,1,1,1,1,1,1,1,0,0,1,1,1,1,1,1,0,1,1,0,0,0,0,0,0,0,0,0,0,0,0,0,0,0,0,0,0,0,0,0,0],"id":27,"left_children":[1,3,5,7,-1,9,11,13,15,17,-1,19,21,23,25,-1,27,-1,-1,29,31,33,35,37,39,41,-1,-1,43,45,47,49,51,53,-1,55,57,-1,-1,-1,-1,-1,-1,-1,-1,-1,-1,-1,-1,-1,-1,-1,-1,-1,-1,-1,-1,-1,-1],"loss_changes":[3.2465434E4,1.6714205E4,4.8343637E4,1.4956791E4,0E0,1.6310586E4,3.7706836E4,8.239982E3,1.3183611E4,2.2049078E4,0E0,1.3221627E4,1.055173E4,4.958707E3,5.3398438E0,0E0,1.1165857E4,0E0,0E0,5.8563203E3,2.335207E3,8.110457E3,8.217988E2,1.0632549E4,1.0434692E4,1.0749707E2,0E0,0E0,4.528121E3,3.290846E3,1.4920015E4,1.7022266E2,3.3503613E3,3.7295166E2,0E0,1.0671064E3,8.799768E1,0E0,0E0,0E0,0E0,0E0,0E0,0E0,0E0,0E0,0E0,0E0,0E0,0E0,0E0,0E0,0E0,0E0,0E0,0E0,0E0,0E0,0E0],"parents":[2147483647,0,0,1,1,2,2,3,3,5,5,6,6,7,7,8,8,9,9,11,11,12,12,13,13,14,14,16,16,19,19,20,20,21,21,22,22,23,23,24,24,25,25,28,28,29,29,30,30,31,31,32,32,33,33,35,35,36,36],"right_children":[2,4,6,8,-1,10,12,14,16,18,-1,20,22,24,26,-1,28,-1,-1,30,32,34,36,38,40,42,-1,-1,44,46,48,50,52,54,-1,56,58,-1,-1,-1,-1,-1,-1,-1,-1,-1,-1,-1,-1,-1,-1,-1,-1,-1,-1,-1,-1,-1,-1],"split_conditions":[1.30905E2,1.55E1,4.7E1,1.5274416E2,-4.5285027E-2,2.6094E2,3.5E0,9.5E0,-1.1919265E6,1.73855E2,7.376434E-2,1.6038815E6,2.19965E2,4.6488083E1,6.6985E1,-8.20071E-2,1.5438666E2,9.7474724E-2,9.546659E-1,5E-1,-5.4775E4,1.1350858E1,3.49155E2,4.3423737E1,-2.6898945E6,-5.965E2,8.4969565E-2,-1.2270595E-1,-1.7354E4,1.46565E2,6.149437E0,1.42125E2,2.5E0,4.1397E4,6.518422E-1,2.4741E2,3.61835E2,-5.7205646E-3,-5.1315777E-2,1.807991E-1,4.6667396E-3,1.845031E-1,7.40748E-2,-2.64072E-2,2.66967E-3,1.2276277E-1,4.9329563E-3,2.5196532E-2,2.059265E-1,5.2156724E-2,1.1573929E-1,1.249601E-1,3.6545488E-1,1.0137137E-1,2.6922053E-1,